{"version":"0.5.4","metadata":{"date":{"year":2025,"month":5,"day":4,"hour":2,"minute":1,"second":32},"loudness":-16.037620544433594,"gain":0.43647611539979736,"name":"output","modeled_by":"joel0438","gear_type":"studio","gear_make":"tz-make","gear_model":"tz-model","tone_type":"overdrive","input_level_dbu":null,"output_level_dbu":null,"training":{"settings":{"ignore_checks":true},"data":{"latency":{"manual":null,"calibration":{"algorithm_version":1,"delays":[0],"safety_factor":1,"recommended":-1,"warnings":{"matches_lookahead":false,"disagreement_too_high":false}}},"checks":{"version":4,"passed":false}},"validation_esr":0.013693071150310064}},"architecture":"WaveNet","config":{"layers":[{"input_size":1,"condition_size":1,"head_size":8,"channels":16,"kernel_size":3,"dilations":[1,2,4,8,16,32,64,128,256,512],"activation":"Tanh","gated":false,"head_bias":false},{"input_size":16,"condition_size":1,"head_size":1,"channels":8,"kernel_size":3,"dilations":[1,2,4,8,16,32,64,128,256,512],"activation":"Tanh","gated":false,"head_bias":true}],"head":null,"head_scale":0.02},"weights":[0.0013639186508953571,0.49629878997802734,-0.5598058104515076,-0.7411065101623535,-0.27686068415641785,0.1267508864402771,0.0030295418109744787,0.8447680473327637,-0.07494637370109558,0.18625536561012268,-0.29708853363990784,-0.12000995874404907,-0.9302657246589661,-0.6632389426231384,-0.3346579670906067,-0.0023877888452261686,-0.04382344335317612,-0.022570863366127014,-0.1466217041015625,-0.010077016428112984,0.08438432216644287,0.01425425335764885,-0.08562267571687698,0.07280205935239792,0.07544346898794174,-0.042235612869262695,0.09468922764062881,-0.03227417916059494,-0.13937975466251373,-0.0651538223028183,0.04862658306956291,0.19020192325115204,-0.044549472630023956,-0.14704854786396027,-0.038281191140413284,-0.07424166053533554,-0.12248137593269348,0.18095314502716064,0.09847796708345413,-0.03296203911304474,-0.02942460961639881,-0.08820272982120514,0.1386210173368454,-0.08413128554821014,-0.07429949194192886,-0.17577362060546875,0.03692299872636795,0.053368277847766876,0.04043110832571983,-0.07164804637432098,0.04425978288054466,0.22770613431930542,0.00009957078145816922,-0.015984157100319862,0.19818930327892303,-0.1407245546579361,-0.006754608359187841,-0.00888762529939413,-0.15137378871440887,-0.10535845160484314,0.1688852459192276,0.044736456125974655,-0.12347453832626343,0.011255832388997078,-0.12040390074253082,-0.20220568776130676,-0.24464856088161469,0.1473856419324875,0.11557405441999435,0.1080225482583046,-0.22185444831848145,-0.07868700474500656,0.08646111935377121,0.005163729656487703,0.09908785670995712,0.15715733170509338,-0.07689042389392853,-0.14641335606575012,0.04732045903801918,0.031111808493733406,-0.09258809685707092,0.11485959589481354,0.238673597574234,-0.10427218675613403,0.04124538227915764,0.09000576287508011,0.0019477885216474533,-0.09663354605436325,-0.03079344518482685,-0.08775943517684937,0.10141772776842117,0.17406347393989563,0.12005212903022766,0.01678868569433689,-0.250100314617157,-0.11355612426996231,0.10684748739004135,-0.0912107303738594,-0.1519545316696167,-0.06896445155143738,0.021494146436452866,0.07071425020694733,-0.032998550683259964,-0.14912927150726318,-0.1624341607093811,0.028740862384438515,-0.21908913552761078,-0.13647054135799408,0.02213168516755104,-0.008020595647394657,-0.0693269744515419,0.05969213321805,-0.05202023684978485,0.10275879502296448,0.11622364073991776,-0.14903980493545532,0.03547801449894905,-0.1217164620757103,0.04346258565783501,-0.03894638270139694,0.1776849776506424,0.034075308591127396,-0.1436275839805603,0.195456862449646,-0.10872827470302582,-0.149940624833107,0.09145601838827133,-0.08451273292303085,0.02719910815358162,-0.2254565805196762,-0.10000957548618317,-0.0004259321722202003,-0.2063724398612976,-0.031717732548713684,0.17791925370693207,-0.14148634672164917,0.05804285407066345,-0.050286319106817245,0.1831747144460678,0.05762113258242607,0.19522064924240112,-0.0408618301153183,0.17188258469104767,-0.07345683127641678,0.006991943810135126,-0.04949348047375679,0.023326722905039787,0.11275538057088852,-0.04836971312761307,-0.18532034754753113,-0.01008131355047226,-0.09624611586332321,-0.10193664580583572,0.2064923197031021,0.10669618099927902,-0.20629967749118805,0.217742919921875,-0.10001779347658157,-0.06413855403661728,-0.03911445289850235,0.010800794698297977,0.07815295457839966,-0.06693794578313828,-0.1546422392129898,-0.11035093665122986,0.11721568554639816,-0.03200044482946396,0.143667533993721,-0.23873980343341827,0.02301780693233013,0.21729333698749542,-0.17221525311470032,0.15514686703681946,0.13283216953277588,-0.24633803963661194,0.04689791053533554,-0.11533329635858536,0.02654966525733471,0.08376769721508026,-0.16998988389968872,0.04410921037197113,-0.06364189833402634,0.01223845686763525,0.15381313860416412,0.07166978716850281,0.1060810387134552,-0.175578311085701,-0.05186406150460243,-0.19455401599407196,0.19809041917324066,0.1379227191209793,0.17844925820827484,-0.2246885597705841,0.0463479608297348,-0.006466263439506292,-0.17768365144729614,-0.049915485084056854,0.1407446712255478,-0.1976715624332428,0.028731850907206535,0.09509408473968506,-0.021182920783758163,-0.08089140057563782,-0.014856475405395031,-0.19819419085979462,0.06293919682502747,-0.06483270227909088,0.0422840490937233,-0.0370812714099884,-0.009194379672408104,-0.08609195053577423,-0.05753196403384209,-0.10880600661039352,0.02140139415860176,0.03263525664806366,0.14681613445281982,-0.16128773987293243,-0.044029586017131805,0.24582867324352264,-0.1698877513408661,0.013906912878155708,0.26034265756607056,-0.00532573414966464,-0.037100378423929214,-0.25828680396080017,0.10742528736591339,-0.06910707801580429,-0.04955968260765076,0.01633332297205925,-0.05396445840597153,-0.1287079155445099,0.17150719463825226,0.018637649714946747,0.22061917185783386,0.004935155622661114,-0.11152666062116623,-0.04738977551460266,-0.039988476783037186,-0.03911379352211952,0.16118675470352173,-0.015289024449884892,0.14351782202720642,0.08252785354852676,-0.04337061941623688,0.10769239813089371,-0.009120563976466656,0.05331102013587952,-0.08813056349754333,0.13038161396980286,-0.07789421081542969,-0.049895990639925,0.14016610383987427,0.06287693232297897,-0.008215689100325108,-0.003888131817802787,-0.02267812192440033,-0.0711098462343216,0.07227636128664017,0.012741333805024624,-0.13698631525039673,-0.02133616805076599,-0.01541003119200468,0.11176257580518723,0.047402430325746536,0.1430482119321823,-0.008014433085918427,-0.10224340111017227,0.14178632199764252,0.15753242373466492,-0.018803216516971588,0.02566433511674404,-0.09877968579530716,-0.07170450687408447,-0.05065010115504265,-0.11211824417114258,-0.10972219705581665,0.06324255466461182,-0.13293121755123138,0.04623179882764816,-0.05783767253160477,0.05896157771348953,-0.1358902007341385,-0.0021717557683587074,0.07202456891536713,0.07565169036388397,0.02074173279106617,-0.0001730506628518924,-0.010116495192050934,0.07487580180168152,0.03281771391630173,-0.14601831138134003,0.14130163192749023,0.08384867757558823,-0.06611312925815582,0.06453277170658112,-0.0492825023829937,0.03815598785877228,-0.00862804427742958,0.09862887859344482,-0.1077273041009903,0.026250554248690605,0.027396654710173607,-0.12006310373544693,0.021132266148924828,-0.0561690591275692,-0.2235773801803589,-0.08081375062465668,0.0673927366733551,0.07371427863836288,-0.13008195161819458,-0.1270584911108017,-0.04215381667017937,0.15382665395736694,-0.05927662178874016,0.03776819631457329,0.2077515721321106,-0.08080670237541199,-0.014596674591302872,0.16511301696300507,0.025269215926527977,0.03952402248978615,-0.07299146056175232,-0.14409025013446808,-0.030140768736600876,-0.008509939536452293,0.13724741339683533,0.10177870094776154,-0.09281548112630844,0.08370709419250488,-0.06294089555740356,0.007156897336244583,-0.12651994824409485,0.15149298310279846,-0.021224819123744965,-0.09871211647987366,0.04696004092693329,0.22642144560813904,0.13157881796360016,0.10120216012001038,0.20692671835422516,-0.040655553340911865,-0.06842263042926788,0.22877496480941772,0.07465416193008423,-0.10322831571102142,0.24154451489448547,0.06373486667871475,0.06174931675195694,0.016499189659953117,0.12050282955169678,0.0034889804664999247,0.1694568544626236,0.21567848324775696,0.1359081119298935,0.1814703643321991,0.03351916745305061,0.16620184481143951,0.05715535953640938,-0.07368899136781693,-0.1771964430809021,-0.08475524187088013,-0.1156344786286354,-0.33238548040390015,0.12630848586559296,0.11047247797250748,-0.06750570237636566,0.13397753238677979,-0.14185850322246552,0.1190994456410408,-0.01978037692606449,-0.11844102293252945,0.20961758494377136,-0.09789171814918518,-0.09644667059183121,0.07818303257226944,-0.0935785323381424,0.1706753671169281,-0.06275336444377899,0.14283010363578796,0.07696274667978287,0.32708320021629333,-0.058008283376693726,0.10044044256210327,-0.07646385580301285,0.07051235437393188,0.164072185754776,-0.14063923060894012,0.0918201133608818,-0.02561069279909134,-0.1480865627527237,0.027296006679534912,-0.007333938032388687,-0.2966770529747009,-0.06813665479421616,-0.08096981048583984,-0.11106059700250626,0.11807485669851303,-0.05095986649394035,-0.23539622128009796,0.06771823018789291,0.09480474144220352,-0.03936002776026726,-0.05561712384223938,0.12695790827274323,0.15878023207187653,-0.2035534679889679,0.13866138458251953,0.008909543976187706,0.03402232751250267,0.08436747640371323,-0.18395256996154785,0.07003607600927353,0.12994973361492157,-0.08629848062992096,-0.008885842747986317,-0.0418703630566597,0.0637434870004654,-0.10368572920560837,-0.02774750627577305,0.14368464052677155,-0.06151820346713066,-0.09136529266834259,0.11059413105249405,-0.022512104362249374,0.10364716500043869,-0.19704142212867737,0.09414055198431015,-0.11825954169034958,0.025399843230843544,-0.045330215245485306,-0.09178996086120605,-0.039788298308849335,0.22266118228435516,0.0069851321168243885,-0.1978583037853241,0.030109619721770287,0.032658521085977554,-0.21334707736968994,0.16196851432323456,-0.1277056634426117,-0.2400357574224472,-0.047760963439941406,-0.02227039262652397,0.0027357074432075024,-0.04236087575554848,0.16324330866336823,-0.05769461765885353,0.09729155898094177,0.024264752864837646,-0.14862060546875,0.03241743519902229,0.0895569920539856,0.028096718713641167,0.10553888976573944,-0.10584902763366699,0.23372089862823486,-0.02397196739912033,0.058447349816560745,0.0018186967354267836,-0.07269308716058731,-0.15880993008613586,0.04532869905233383,-0.008438995108008385,-0.11259961873292923,-0.07015332579612732,0.09850059449672699,0.10688436031341553,-0.037563201040029526,0.08156897127628326,-0.03282858803868294,-0.054240304976701736,0.17404429614543915,0.05749954283237457,0.08079738914966583,0.00867469236254692,-0.1275346726179123,-0.22945407032966614,0.10132402181625366,-0.09645898640155792,0.1837417632341385,-0.1372404247522354,-0.074467733502388,-0.002152838744223118,0.05406837910413742,-0.024666205048561096,0.2282605767250061,0.05837642401456833,0.06807228922843933,0.12077696621417999,-0.0769273191690445,-0.047345180064439774,0.12678322196006775,0.03449742868542671,-0.0927140861749649,0.1890673190355301,0.02066684514284134,-0.07730168849229813,-0.11686013638973236,0.11632038652896881,0.17491775751113892,-0.00701904296875,0.07078759372234344,0.024665696546435356,-0.043639328330755234,0.14782245457172394,-0.12382826954126358,-0.08402341604232788,0.08750049024820328,-0.08134541660547256,-0.07214231789112091,-0.008525156415998936,0.14900724589824677,0.10206986963748932,-0.06041795387864113,0.09071021527051926,0.17074993252754211,0.00005307519677444361,0.05981804430484772,0.2136438488960266,-0.043012794107198715,0.024331478402018547,-0.13259504735469818,0.10572134703397751,-0.06864487379789352,0.03130638599395752,-0.10997842252254486,0.09641323238611221,-0.15695244073867798,0.039035163819789886,-0.12384634464979172,0.008293287828564644,0.15592476725578308,-0.15654481947422028,-0.2478146255016327,-0.08241863548755646,-0.04619818925857544,-0.1652091145515442,-0.06498471647500992,-0.0933363065123558,-0.09648264199495316,-0.04439501836895943,0.17099322378635406,0.049555517733097076,0.0943240225315094,0.09804461151361465,0.25508439540863037,-0.01722130738198757,-0.010351214557886124,-0.1738111674785614,0.2164238840341568,-0.1164403036236763,-0.017228657379746437,0.07342252135276794,-0.07176046818494797,0.15081068873405457,-0.08513396978378296,-0.016472987830638885,0.08035504072904587,0.016207648441195488,-0.02408421039581299,-0.2677720785140991,-0.030756507068872452,-0.09057965129613876,-0.009712612256407738,-0.06649214029312134,0.11674239486455917,-0.1555050015449524,0.04714512079954147,0.10274564474821091,0.15972284972667694,0.022714290767908096,0.07320070266723633,-0.15180635452270508,-0.01698378659784794,0.0002681358309928328,0.2337590903043747,-0.12879227101802826,-0.10339247435331345,0.188165545463562,0.08485010266304016,-0.020486487075686455,0.0041290451772511005,-0.20239077508449554,0.054499659687280655,0.11067087203264236,-0.14658497273921967,0.04497605562210083,0.17125535011291504,0.04078631103038788,0.11842704564332962,0.038216859102249146,-0.12035176903009415,-0.19993571937084198,0.08257903903722763,-0.039813026785850525,0.19313357770442963,-0.25270575284957886,0.09947624057531357,0.008113615214824677,0.24791163206100464,-0.09358447790145874,-0.18492761254310608,0.02870510146021843,0.17040395736694336,-0.18287526071071625,0.04910590127110481,0.10686229169368744,0.05293110013008118,-0.1749601513147354,-0.03678088262677193,-0.023057186976075172,-0.2107166200876236,0.07974515110254288,0.0673452690243721,-0.07962276041507721,0.09014465659856796,-0.049948617815971375,0.13549265265464783,0.15126216411590576,0.1345483958721161,-0.1875879317522049,0.09976264089345932,-0.091269351541996,-0.0069600362330675125,-0.0034609618596732616,-0.21879489719867706,0.23998971283435822,0.00902886688709259,-0.26043501496315,0.11881192028522491,0.12522631883621216,-0.0918954387307167,0.1744670271873474,0.04820098355412483,-0.07369529455900192,0.08263657242059708,-0.028140144422650337,-0.1339939683675766,-0.06133934110403061,0.043624818325042725,-0.16115063428878784,-0.01499025709927082,-0.07696980983018875,0.037069085985422134,-0.17978927493095398,0.24561330676078796,-0.10364104807376862,0.20738480985164642,-0.21382130682468414,-0.05849365517497063,0.16747155785560608,-0.164783775806427,0.09388262033462524,-0.019849317148327827,-0.22754347324371338,-0.05187883600592613,-0.0668993815779686,0.22133414447307587,0.03722056746482849,0.0919429212808609,0.10554476082324982,-0.008854649029672146,0.01561824046075344,-0.007411019876599312,-0.02735026739537716,0.19812911748886108,-0.142985001206398,0.13957294821739197,-0.12247536331415176,0.22272545099258423,-0.16986826062202454,0.06057233735918999,-0.13819482922554016,0.025435900315642357,0.1417858600616455,0.012131117284297943,-0.0428524948656559,0.08489606529474258,-0.004140020348131657,-0.06238182261586189,0.21530446410179138,-0.20116421580314636,-0.04212220385670662,0.07433334738016129,-0.04239971190690994,-0.011781592853367329,-0.08707752078771591,-0.24850529432296753,-0.03963765501976013,-0.06186255067586899,-0.04175319895148277,-0.03700939193367958,0.08151580393314362,0.07008811086416245,-0.04090213403105736,-0.12829436361789703,0.16172684729099274,-0.16070827841758728,0.04341823607683182,0.08620300143957138,-0.11611051112413406,0.05911017209291458,-0.06651100516319275,0.08438050746917725,-0.09156106412410736,-0.07124979794025421,0.06115618720650673,0.1414756029844284,-0.08953389525413513,0.14714710414409637,-0.029095875099301338,-0.13308577239513397,-0.15843212604522705,-0.10558776557445526,0.2166626900434494,0.01045841071754694,-0.004122610203921795,-0.024786636233329773,0.04627254232764244,0.13619717955589294,0.18320269882678986,-0.15712808072566986,-0.016751304268836975,-0.023414306342601776,-0.13651452958583832,0.04373868927359581,0.19959190487861633,-0.16872425377368927,0.09836287796497345,-0.009612354449927807,-0.0778479278087616,0.12492804229259491,0.031905099749565125,0.06629893183708191,-0.04497950151562691,0.16425466537475586,0.03945062682032585,0.025333372876048088,0.15766485035419464,-0.14171963930130005,-0.23746876418590546,0.08874867856502533,0.15512309968471527,0.08185470849275589,-0.008581077679991722,0.16472874581813812,0.22030888497829437,-0.154536634683609,0.01660197786986828,0.06793077290058136,-0.20006124675273895,-0.052443068474531174,-0.023050474002957344,0.18197806179523468,-0.03320420905947685,-0.03266138955950737,-0.04724448546767235,0.06819803267717361,-0.18526986241340637,-0.021301498636603355,0.024088669568300247,0.16827373206615448,-0.24493393301963806,0.10356651991605759,-0.054887790232896805,-0.01136345136910677,-0.0021818927489221096,0.2377801090478897,-0.20085617899894714,0.006318625528365374,0.1764528602361679,-0.19153425097465515,0.1211058720946312,0.20072296261787415,0.01200562622398138,-0.052736036479473114,0.2668713629245758,-0.1656772494316101,0.1791863739490509,-0.021362487226724625,-0.21070821583271027,0.072327621281147,0.04848112910985947,-0.025102579966187477,-0.08910372853279114,-0.11951561272144318,-0.06041133403778076,-0.12392643094062805,0.024054361507296562,0.046434689313173294,-0.010952736251056194,-0.022008240222930908,0.08121127635240555,0.13104994595050812,-0.045984238386154175,-0.014922341331839561,-0.06144535541534424,-0.015614413656294346,-0.03288768231868744,-0.017971251159906387,0.3463619351387024,-0.4535158574581146,0.6766120195388794,-0.5950657725334167,0.04846003279089928,0.8041359782218933,0.8867197632789612,-0.5852677822113037,0.09222743660211563,0.14573994278907776,-0.49050912261009216,-0.278650164604187,0.23632124066352844,-0.5962170958518982,0.10275501757860184,0.5044068098068237,-0.049573127180337906,0.23104910552501678,-0.06435389816761017,0.11015655845403671,0.26041707396507263,-0.11594124138355255,0.11447111517190933,-0.01973436400294304,-0.07080371677875519,-0.06726022809743881,0.04116198420524597,0.061693962663412094,0.15640872716903687,0.014908329583704472,0.27228328585624695,-0.0499173142015934,-0.08872557431459427,-0.21365612745285034,-0.22538742423057556,0.07946936786174774,0.15641190111637115,-0.006747385952621698,-0.09768528491258621,-0.05945417284965515,-0.02811480313539505,0.24020791053771973,-0.09689861536026001,0.07367821037769318,0.03168458864092827,-0.071602962911129,-0.06888294219970703,0.39155206084251404,0.1812252402305603,0.0807204470038414,0.15345677733421326,0.1489485651254654,-0.15295259654521942,0.04767078161239624,0.22410143911838531,-0.27662742137908936,-0.0022478150203824043,-0.10021618753671646,0.21869266033172607,-0.281952828168869,0.25616616010665894,0.18158023059368134,0.15946455299854279,0.12278642505407333,0.22713561356067657,-0.12313113361597061,0.008018305525183678,-0.17826132476329803,-0.07663411647081375,0.15853051841259003,0.062434710562229156,-0.026850808411836624,-0.1737978160381317,0.1469191461801529,0.054195500910282135,-0.0495043620467186,0.1403365135192871,0.1700097918510437,-0.1371578872203827,0.004312435165047646,0.038522087037563324,-0.3485482633113861,-0.10816369950771332,0.009504602290689945,0.09999458491802216,0.27511170506477356,0.23097318410873413,-0.17289909720420837,0.1887466460466385,0.25429585576057434,-0.12568213045597076,0.09014894813299179,-0.01604597456753254,-0.012693307362496853,0.11980529129505157,0.03895983472466469,-0.25453171133995056,-0.0984983965754509,0.06288804858922958,0.06595323234796524,0.23803550004959106,0.20514875650405884,0.16779325902462006,0.20843525230884552,0.20788195729255676,-0.09254253655672073,-0.28778886795043945,-0.14272235333919525,-0.14084601402282715,-0.1670512706041336,-0.04292942211031914,0.06583986431360245,0.023415373638272285,0.09890716522932053,0.18599241971969604,0.19482873380184174,-0.11932992935180664,-0.2402256578207016,0.036246322095394135,0.1023392453789711,0.043650440871715546,-0.2823764681816101,-0.3170302212238312,0.223073348402977,0.08390247821807861,-0.15750467777252197,0.06414217501878738,-0.15523888170719147,0.2126704305410385,0.07955112308263779,0.28213173151016235,-0.2781464457511902,-0.2754056453704834,0.13515357673168182,0.27894431352615356,0.20668387413024902,0.196282297372818,-0.17852844297885895,0.20447182655334473,-0.2195621132850647,0.1089591532945633,-0.16708506643772125,-0.07684189826250076,-0.12069843709468842,-0.05248218774795532,0.09018874913454056,-0.20730328559875488,-0.2113187611103058,0.10210032016038895,-0.03912167623639107,-0.11954159289598465,-0.11923429369926453,-0.22496876120567322,-0.15683886408805847,0.1643349528312683,0.10681071877479553,0.08694445341825485,-0.09945298731327057,0.19920308887958527,0.08874472230672836,-0.2487402856349945,-0.026846392080187798,0.11234863102436066,-0.22362951934337616,-0.13527965545654297,-0.09292935580015182,0.08275815099477768,-0.22631116211414337,0.038579311221838,0.14256031811237335,-0.02526073344051838,0.142691507935524,0.10968968272209167,0.1869416981935501,-0.1858738511800766,0.05423896759748459,0.12860286235809326,0.20076189935207367,-0.2434881180524826,0.1498723328113556,-0.03435368090867996,-0.16600994765758514,0.04596681147813797,-0.16117854416370392,0.006691544316709042,-0.1406668871641159,-0.19367749989032745,-0.0050214664079248905,-0.004872391000390053,0.13874949514865875,0.008283771574497223,0.3413373529911041,-0.09381241351366043,-0.17122198641300201,0.15767300128936768,0.03046393021941185,0.030917581170797348,-0.015366910956799984,-0.05251244828104973,0.12056940793991089,0.006231230683624744,-0.12215576320886612,-0.02269706316292286,-0.22517193853855133,-0.17145292460918427,0.10486026853322983,-0.34512490034103394,-0.15881510078907013,0.008917275816202164,0.03467320650815964,0.0822513997554779,0.042614977806806564,0.07414896041154861,-0.09685614705085754,0.005324060562998056,0.09835084527730942,0.2084193378686905,-0.08137605339288712,-0.08327710628509521,0.0024246920365840197,0.17383906245231628,-0.17301788926124573,-0.07941338419914246,0.20571580529212952,0.004592376295477152,-0.18671579658985138,-0.10022290796041489,0.08168698102235794,-0.13763748109340668,0.26687490940093994,0.206916943192482,0.07544632256031036,0.010848842561244965,-0.10718616843223572,0.03340459242463112,-0.043259743601083755,-0.22967064380645752,-0.10669677704572678,-0.22481633722782135,0.2412659376859665,-0.10204096883535385,0.20042988657951355,-0.033806703984737396,-0.13476814329624176,0.07229238748550415,0.10315391421318054,0.16486583650112152,0.1067434772849083,-0.22713132202625275,0.09057525545358658,-0.002830739365890622,-0.13482026755809784,0.07948168367147446,0.14654314517974854,-0.16360366344451904,0.055604491382837296,0.1371827870607376,0.04132051765918732,0.12912626564502716,-0.05497205629944801,-0.08635804802179337,0.11555200815200806,0.04169098287820816,0.1429823338985443,-0.1251588761806488,-0.12396205961704254,-0.028564028441905975,-0.17116254568099976,0.008070400916039944,0.20879530906677246,0.08430600166320801,-0.08238822221755981,0.12733204662799835,-0.10299970954656601,0.1197916716337204,-0.16040979325771332,-0.0552540048956871,-0.05647552013397217,0.10185211151838303,0.013477064669132233,0.04522550851106644,-0.11190410703420639,0.0646309033036232,-0.006080522667616606,0.031078873202204704,0.15264856815338135,0.07747048139572144,0.040896788239479065,-0.016671959310770035,-0.1664935201406479,-0.03272594138979912,0.16558487713336945,0.08588644862174988,0.07993334531784058,-0.0711364597082138,-0.1345483958721161,0.021449081599712372,-0.13670983910560608,-0.05278269946575165,-0.02118454873561859,-0.005440505687147379,-0.011952553875744343,0.07133715599775314,0.13968107104301453,0.05083387345075607,0.07654047012329102,-0.14749698340892792,-0.20064689218997955,0.07614407688379288,-0.036516737192869186,-0.03212358430027962,-0.15005642175674438,-0.06019626930356026,-0.02124706842005253,-0.13758502900600433,-0.11963855475187302,0.09895209223031998,-0.0736069306731224,-0.10220496356487274,-0.11497358232736588,-0.02728579379618168,-0.16195863485336304,-0.21835532784461975,-0.08194609731435776,-0.12215135246515274,-0.09010124951601028,-0.0891314148902893,-0.11258888989686966,0.02126576565206051,-0.1367955505847931,-0.09630278497934341,0.010213855654001236,0.016622507944703102,0.07042147219181061,-0.062313273549079895,-0.06937416642904282,-0.022581681609153748,-0.03679279237985611,0.18772107362747192,-0.1496562510728836,0.07155313342809677,0.03870409354567528,-0.06502377986907959,-0.1352142095565796,0.11658085137605667,-0.1434142142534256,0.020011793822050095,-0.05018029734492302,-0.023003865033388138,-0.10151185840368271,0.1211848109960556,-0.16022267937660217,-0.06491673737764359,-0.09903991222381592,0.11678146570920944,-0.18772944808006287,-0.04753211513161659,0.12163551151752472,-0.05916397273540497,-0.0975550040602684,-0.09581778198480606,-0.0033577356953173876,0.06491769850254059,0.08684510737657547,0.028880087658762932,-0.21407227218151093,0.03577772527933121,0.026168692857027054,0.0930134505033493,-0.06869331002235413,-0.09681543707847595,0.09474071860313416,-0.08337709307670593,-0.07773192226886749,0.09425322711467743,0.0007111986051313579,0.07889024168252945,0.09158913046121597,-0.043331705033779144,-0.12270178645849228,0.031183168292045593,-0.014413651078939438,0.08968658745288849,-0.19919760525226593,0.012207681313157082,-0.14935165643692017,0.08123376965522766,0.14803506433963776,0.13554349541664124,-0.08713455498218536,-0.04103844612836838,-0.003067060373723507,0.09662105143070221,0.12878194451332092,-0.031184427440166473,-0.053453776985406876,0.1014331504702568,-0.07693393528461456,0.08419591188430786,-0.05761554464697838,0.13345500826835632,0.0309019573032856,0.16455434262752533,-0.10407939553260803,-0.046540964394807816,-0.08054301142692566,-0.03727113455533981,0.06541860848665237,0.025449175387620926,-0.14379461109638214,0.03202444687485695,-0.06631797552108765,0.09894506633281708,-0.15704278647899628,-0.08272293955087662,-0.1831512153148651,0.16916467249393463,0.11903206259012222,0.018846428021788597,0.11160290986299515,0.09471985697746277,-0.03173301741480827,0.025028450414538383,-0.02273203805088997,-0.050105247646570206,0.0777638778090477,-0.08792688697576523,0.020207427442073822,0.13330475986003876,-0.11878009885549545,0.15305647253990173,0.08119557052850723,-0.08817240595817566,-0.1997751146554947,0.0037453514523804188,-0.1255273073911667,-0.08559713512659073,0.1604776680469513,0.09181997179985046,-0.08825591206550598,-0.18930168449878693,0.09562897682189941,0.06351776421070099,-0.13053962588310242,-0.08725780248641968,-0.20579946041107178,-0.06574433296918869,-0.05939272791147232,0.15961718559265137,0.04459436982870102,0.15568476915359497,0.2382669895887375,0.0855676531791687,-0.14360205829143524,0.13691404461860657,0.07213971763849258,0.12508125603199005,-0.19661641120910645,0.09028878062963486,0.1080346629023552,-0.13651379942893982,0.08174959570169449,0.13520723581314087,-0.1836114078760147,0.029835492372512817,0.010317781008780003,0.07866557687520981,-0.06471426784992218,0.09165311604738235,0.0894751325249672,-0.11125151067972183,0.09272449463605881,-0.15537872910499573,-0.12880638241767883,-0.07570978999137878,-0.11007402837276459,0.03525269776582718,0.07915086299180984,0.19577230513095856,0.1049843281507492,-0.04848925769329071,-0.13043184578418732,0.07877018302679062,0.1569090187549591,0.07833947986364365,0.04815121367573738,-0.09750504791736603,0.020830586552619934,-0.010035080835223198,-0.11722773313522339,0.038588996976614,0.1251833140850067,-0.022643107920885086,-0.07503552734851837,-0.08778032660484314,-0.11693889647722244,0.14622575044631958,-0.15254464745521545,0.1289035975933075,-0.07169822603464127,0.021460553631186485,-0.007711666636168957,0.15079709887504578,0.04258144274353981,0.12973564863204956,-0.008223345503211021,0.04845934361219406,-0.08693239837884903,-0.10475597530603409,-0.04350324347615242,0.1749153435230255,-0.09887801855802536,0.09633629769086838,-0.09841801226139069,0.16006967425346375,0.1416683793067932,-0.16682124137878418,-0.16240108013153076,0.1715558022260666,0.013397609815001488,-0.027033671736717224,0.0621805340051651,-0.0001870278938440606,-0.15103808045387268,-0.059484027326107025,0.053784120827913284,0.039621733129024506,-0.13109640777111053,0.009911563247442245,0.02305232174694538,-0.1533847153186798,-0.19115222990512848,0.1332525610923767,-0.05850159376859665,-0.007477389648556709,0.004265176132321358,-0.015066353604197502,0.019776949658989906,0.11992163211107254,0.002346384571865201,-0.09417138993740082,0.07780426740646362,-0.055925991386175156,0.049845900386571884,-0.124176025390625,0.12230101227760315,0.06957130879163742,-0.22892610728740692,-0.09380453079938889,0.10240961611270905,-0.14509928226470947,0.28293272852897644,0.15260863304138184,0.18600574135780334,-0.1930227428674698,0.13773611187934875,-0.059559158980846405,0.050286319106817245,0.07501301169395447,0.10807398706674576,-0.09747589379549026,0.030613381415605545,-0.163443461060524,0.06882459670305252,0.0869089812040329,0.12088144570589066,-0.05295473337173462,-0.06083974987268448,-0.11541368067264557,0.036039065569639206,-0.0723249763250351,0.1308504343032837,-0.25758880376815796,-0.01010980922728777,-0.0341448113322258,0.17895393073558807,-0.1535014659166336,0.09539289772510529,0.08300355076789856,0.06881541013717651,0.25795432925224304,-0.008914550766348839,-0.12456347048282623,-0.11222199350595474,0.14252491295337677,0.12518836557865143,-0.00032932896283455193,-0.011768975295126438,-0.04645511135458946,0.12728393077850342,0.015351659618318081,0.351911723613739,0.12348920851945877,0.13171349465847015,0.11311378329992294,-0.03385061025619507,0.17331025004386902,-0.00728598702698946,0.11744167655706406,-0.017591308802366257,-0.1435127556324005,-0.1682346910238266,-0.13582511246204376,0.0563151054084301,0.11773614585399628,0.029025139287114143,0.025736233219504356,-0.10516772419214249,0.07051307708024979,0.2655799090862274,-0.05195203050971031,-0.06563343107700348,0.06770725548267365,0.0417415089905262,0.08583515882492065,0.02967345155775547,-0.01602897047996521,-0.20770686864852905,-0.18063287436962128,-0.06297551095485687,-0.07137744873762131,-0.07183344662189484,-0.019313635304570198,-0.038842253386974335,-0.13465182483196259,-0.101160429418087,0.15780135989189148,0.2008388340473175,-0.0037659851368516684,0.07581698149442673,-0.15536867082118988,-0.10360489040613174,0.08424873650074005,-0.045051172375679016,-0.13517865538597107,-0.04643622040748596,0.0754300206899643,-0.1672021746635437,-0.0509532131254673,0.19519111514091492,0.06366012990474701,-0.05423659458756447,-0.05019044503569603,-0.13424965739250183,-0.01942117139697075,-0.008302445523440838,0.034756362438201904,-0.07388368993997574,0.01665712334215641,-0.2402309775352478,0.18113960325717926,0.10724527388811111,0.17699840664863586,-0.037897124886512756,0.13091431558132172,-0.24466592073440552,0.029151275753974915,0.06688127666711807,-0.06694254279136658,-0.04263726994395256,-0.06602916121482849,-0.10639914870262146,-0.035571493208408356,-0.1155649870634079,-0.06643596291542053,-0.1273571103811264,0.06391974538564682,-0.045705270022153854,0.09966323524713516,-0.13295994699001312,0.05693639814853668,-0.05281919613480568,0.12693628668785095,0.28571823239326477,-0.08285288512706757,-0.3077434301376343,-0.15003658831119537,-0.24396845698356628,0.18185868859291077,0.17708367109298706,0.18251213431358337,0.11137168854475021,0.09109589457511902,-0.08972225338220596,0.043177280575037,0.14142264425754547,-0.013189427554607391,-0.18210053443908691,-0.1037086695432663,-0.0680040493607521,0.1460433155298233,0.06329493969678879,0.1004064753651619,-0.11742844432592392,-0.2256656438112259,0.09415368735790253,-0.043100349605083466,0.0012943741166964173,0.10223602503538132,-0.012255518697202206,0.031816307455301285,-0.11880092322826385,0.020184099674224854,0.10002343356609344,-0.06969358772039413,-0.000012809847248718143,-0.025059200823307037,0.1685655564069748,0.012115775607526302,0.2263685017824173,0.055167652666568756,-0.034741804003715515,-0.0457894392311573,-0.14105458557605743,-0.002875983016565442,0.011220115236938,0.025460882112383842,0.06388290971517563,-0.11558978259563446,-0.051134493201971054,0.008907194249331951,0.2106105536222458,-0.036347951740026474,-0.0884171575307846,-0.013449498452246189,0.1045721098780632,-0.18085572123527527,0.051413439214229584,-0.05511561781167984,-0.16826863586902618,0.10380959510803223,-0.060407765209674835,-0.06813407689332962,-0.09591634571552277,-0.006647270172834396,0.07640321552753448,-0.19322410225868225,0.1451210230588913,0.051118843257427216,0.041841235011816025,0.04962697997689247,0.16834616661071777,0.058838050812482834,0.12252561748027802,-0.10375391691923141,0.20522074401378632,0.008779657073318958,-0.04779287055134773,-0.10887448489665985,0.03992776945233345,-0.3495509624481201,0.0057296655140817165,0.07822427898645401,-0.15943656861782074,-0.26782578229904175,-0.06669919937849045,-0.2918921113014221,-0.09669437259435654,-0.08240369707345963,-0.1907069981098175,0.029577413573861122,0.07727257162332535,-0.18400919437408447,-0.11792006343603134,0.06844282150268555,0.1450558751821518,0.05337284877896309,-0.08840657025575638,-0.0970708504319191,0.12311261147260666,-0.13579906523227692,-0.052609823644161224,0.046166498214006424,-0.19739879667758942,-0.04702616482973099,0.04865248501300812,0.11207713931798935,-0.06921972334384918,-0.008153748698532581,-0.025467950850725174,0.2279757261276245,0.06855936348438263,-0.1975327432155609,0.11627312004566193,-0.0002396155905444175,0.050797976553440094,-0.22372549772262573,0.10419224202632904,0.22532877326011658,-0.17458729445934296,0.0908990204334259,0.21588754653930664,-0.033521655946969986,0.0043945214711129665,0.0727342739701271,-0.10107556730508804,-0.14455102384090424,-0.020402245223522186,0.20871634781360626,-0.04911861941218376,-0.20603418350219727,0.272615522146225,-0.12627682089805603,-0.16656261682510376,0.16095755994319916,-0.0047286516055464745,-0.05505965277552605,0.17252710461616516,-0.0693916380405426,-0.01423581037670374,0.11018781363964081,0.05352862551808357,-0.09423324465751648,-0.18066240847110748,-0.19516952335834503,0.055074214935302734,0.13967442512512207,-0.18076853454113007,-0.15031932294368744,-0.021694976836442947,0.018680140376091003,0.06350491940975189,-0.07733815908432007,0.041241180151700974,-0.007785215508192778,0.03892988711595535,-0.005619141738861799,-0.01894245482981205,-0.02939583547413349,0.0037311927881091833,-0.03862984478473663,-0.07647811621427536,0.23432213068008423,0.04496011883020401,0.022168908268213272,-0.10401540994644165,0.05462563782930374,0.12804637849330902,0.20680810511112213,0.012995664961636066,0.18529023230075836,-0.17186757922172546,-0.02738768607378006,-0.18957597017288208,0.12191397696733475,-0.004466162528842688,-0.04812127351760864,-0.040743935853242874,-0.03183596953749657,-0.11213445663452148,0.08863469213247299,-0.13103187084197998,-0.09009850025177002,-0.1343626230955124,0.042682453989982605,0.09765306860208511,0.025132430717349052,-0.06185517460107803,0.06351172178983688,-0.07529675960540771,-0.2003781497478485,-0.12974905967712402,0.03121904656291008,-0.02632836066186428,-0.09139268100261688,0.18973344564437866,-0.12334111332893372,0.050895847380161285,0.054780665785074234,-0.13015834987163544,0.11361739784479141,0.17894139885902405,-0.06344613432884216,0.03884275257587433,0.1264064908027649,-0.0277872197329998,0.13996924459934235,-0.025984926149249077,-0.15873172879219055,-0.07574727386236191,-0.2458508163690567,0.16027310490608215,-0.1296643614768982,-0.13643266260623932,-0.047027673572301865,-0.1140609160065651,-0.16254805028438568,0.11680937558412552,-0.13481548428535461,0.136962428689003,0.02373523637652397,-0.01363837718963623,0.016141686588525772,-0.06318440288305283,0.10903866589069366,0.22345402836799622,-0.026348650455474854,0.13285593688488007,-0.2013290822505951,-0.016811784356832504,0.06968467682600021,-0.04832863435149193,0.046331532299518585,-0.028725890442728996,-0.03422713279724121,-0.14118172228336334,0.06175493448972702,-0.03558968007564545,-0.06603407114744186,0.0878371074795723,0.07120542228221893,0.10581966489553452,-0.07300679385662079,-0.27765092253685,-0.05159398913383484,-0.019928181543946266,0.08770783990621567,0.1430617868900299,0.127129927277565,-0.19980722665786743,-0.023141460493206978,-0.06234882399439812,-0.07128290832042694,-0.01940315030515194,-0.12728483974933624,-0.0215887650847435,0.15071743726730347,-0.13879811763763428,0.13351066410541534,-0.04086248204112053,0.18231473863124847,0.12814529240131378,0.07460993528366089,0.11902163922786713,0.11284135282039642,-0.022282561287283897,0.1061142235994339,-0.09065352380275726,0.13699974119663239,-0.0037666941061615944,-0.13914577662944794,0.1082969680428505,0.008698408491909504,-0.060363978147506714,-0.05489598214626312,0.0115043381229043,0.12127179652452469,-0.10568297654390335,-0.13144303858280182,-0.0803225040435791,-0.047230739146471024,0.10246995091438293,0.1477758139371872,-0.05911852419376373,-0.055226851254701614,-0.14179447293281555,-0.1763465255498886,-0.029507340863347054,-0.049254436045885086,0.02739899232983589,-0.13831450045108795,-0.11516635119915009,-0.09616879373788834,-0.026217099279165268,0.2571122646331787,0.05268768593668938,-0.0746660977602005,-0.008524497970938683,0.011320408433675766,-0.05370504409074783,-0.08029861003160477,0.03503810614347458,-0.09587139636278152,0.13935169577598572,0.09125401079654694,0.137290358543396,0.04473993927240372,-0.1062200739979744,0.10545576363801956,0.054020244628190994,0.11486656218767166,0.06493962556123734,0.030822206288576126,-0.17633938789367676,0.018526237457990646,-0.16255421936511993,0.0005635151755996048,-0.06115582212805748,-0.06847964227199554,0.09370025247335434,-0.04867275059223175,0.06437388807535172,0.21206410229206085,0.09601397067308426,0.06909909099340439,-0.028669161722064018,0.0167402196675539,0.005342225544154644,0.09612953662872314,-0.09335969388484955,-0.03187600150704384,-0.015962330624461174,-0.15211331844329834,-0.03726574406027794,-0.07017796486616135,0.1629212647676468,-0.04459462687373161,-0.06175023317337036,-0.08424784988164902,0.2034129500389099,-0.21625223755836487,-0.0701553151011467,0.10902166366577148,0.060810185968875885,0.08167757093906403,0.08392465114593506,-0.052650418132543564,0.01645517535507679,0.08137106150388718,-0.2062065601348877,-0.15375539660453796,0.06230970099568367,-0.0053461226634681225,-0.06565079092979431,-0.1611941009759903,0.17639262974262238,0.07486538589000702,0.021609222516417503,-0.2949545681476593,0.1373947262763977,-0.2191145271062851,-0.008408748544752598,-0.14101000130176544,0.024115724489092827,-0.1741103082895279,-0.07155122607946396,0.1026206761598587,0.26333242654800415,-0.0924518033862114,0.1863405853509903,-0.24339830875396729,-0.17271694540977478,-0.06924624741077423,-0.06744837015867233,-0.13363423943519592,-0.07563690096139908,-0.07460658252239227,-0.006279686465859413,0.17449691891670227,-0.11948832869529724,-0.01047393400222063,-0.03998672962188721,-0.0662180557847023,0.1619129478931427,0.07767625153064728,0.23537577688694,0.11388646811246872,0.08859538286924362,-0.015904948115348816,0.09761139005422592,-0.0809360146522522,0.08454129844903946,0.1054311990737915,0.1283121258020401,-0.06892355531454086,-0.03846783936023712,0.043065544217824936,0.07372148334980011,0.036022111773490906,0.061294008046388626,0.06808280199766159,-0.017929207533597946,-0.33979061245918274,0.2004719376564026,0.2409171313047409,-0.4790048897266388,0.0620238333940506,-0.6575708389282227,-0.25865089893341064,-0.4017622470855713,0.8217340111732483,-0.8863308429718018,-0.44203054904937744,-0.888023853302002,0.23539425432682037,-0.708472728729248,0.25070518255233765,-0.5748410224914551,-0.144250750541687,-0.06889603286981583,0.01439741626381874,0.3537338674068451,0.2977832853794098,0.014204620383679867,-0.2783317565917969,-0.12182097136974335,-0.19182606041431427,0.019727962091565132,0.09032230079174042,0.16916359961032867,-0.13297243416309357,0.26381775736808777,-0.1511278748512268,0.007121956441551447,0.02183775044977665,-0.01927841268479824,-0.029699182137846947,0.0755009651184082,-0.27859073877334595,0.18539610505104065,-0.13519124686717987,-0.1888318508863449,0.20841577649116516,-0.1611139178276062,0.01379156019538641,0.12313105165958405,-0.06097356602549553,0.09625601023435593,0.0386473648250103,0.1554991900920868,-0.048269834369421005,-0.18423092365264893,-0.08662902563810349,0.09080570936203003,0.03467058017849922,0.07732842862606049,-0.09223701059818268,-0.046899884939193726,0.06248405575752258,-0.04470410197973251,-0.28189781308174133,-0.28520700335502625,-0.11732710152864456,-0.04600178077816963,0.2363017499446869,-0.03351809084415436,0.14247719943523407,0.12365923076868057,-0.08626609295606613,-0.1269005537033081,-0.14131514728069305,-0.02756725810468197,-0.010263008065521717,0.023898029699921608,-0.17508482933044434,0.14107650518417358,0.05355154722929001,0.28703245520591736,0.10339424759149551,0.07126665115356445,0.038988035172224045,0.029307272285223007,0.3742485046386719,0.07650691270828247,-0.1356968879699707,-0.15885041654109955,0.24575190246105194,-0.11667495965957642,-0.03601580858230591,0.2037017047405243,0.16552157700061798,-0.03601715341210365,-0.13085174560546875,0.19562453031539917,-0.32402095198631287,0.025979377329349518,0.09564632922410965,-0.22790192067623138,-0.1089734137058258,0.0215284563601017,-0.3442471921443939,-0.0010695474920794368,0.052948854863643646,-0.11887224018573761,-0.20949557423591614,-0.103610098361969,0.14502499997615814,0.22240093350410461,-0.08346711844205856,-0.14248783886432648,-0.12305351346731186,0.011920232325792313,0.062455885112285614,0.10863197594881058,0.015099315904080868,-0.10291444510221481,0.07480672746896744,-0.19455604255199432,0.06849116832017899,0.3481367826461792,-0.2870143949985504,-0.1791657656431198,0.20552019774913788,0.11441480368375778,-0.14089523255825043,0.1065526083111763,0.14100155234336853,-0.0697026401758194,-0.19680339097976685,0.34476155042648315,0.11103390157222748,0.05536748468875885,-0.06976208090782166,0.08573326468467712,0.1616927832365036,-0.16019952297210693,-0.06786887347698212,0.11272862553596497,-0.11088336259126663,0.2592349350452423,-0.24968142807483673,0.07175837457180023,-0.18711262941360474,0.09926724433898926,0.1408069133758545,0.019419025629758835,-0.06477957218885422,0.03027655929327011,-0.05798704922199249,-0.05936838313937187,-0.21091420948505402,-0.08631603419780731,0.08639027923345566,-0.07757945358753204,0.016928303986787796,-0.06325997412204742,0.30416160821914673,-0.014031821861863136,-0.06137103959918022,0.10472660511732101,-0.07218004763126373,0.1882803738117218,-0.1020055040717125,0.04800120368599892,-0.1219901442527771,0.0709063857793808,0.07116859406232834,-0.1503676474094391,0.08968386799097061,-0.034505292773246765,-0.06404179334640503,0.009225181303918362,0.1748487949371338,0.14357461035251617,0.16714702546596527,0.05827175825834274,0.10979998856782913,-0.09351597726345062,-0.08225812017917633,-0.09757807850837708,-0.0764462873339653,0.04829821735620499,0.07378976792097092,-0.023855870589613914,-0.07305210828781128,-0.005307322833687067,0.10381112992763519,0.2505647838115692,-0.22968608140945435,0.0904005691409111,-0.04027115926146507,0.06765147298574448,0.00015918428834993392,0.11174269765615463,0.1000337302684784,0.16854290664196014,-0.2778666615486145,-0.13724230229854584,-0.210227370262146,-0.0053194924257695675,0.1478792279958725,0.15520022809505463,-0.2714446187019348,0.19240041077136993,0.23697113990783691,-0.04045066982507706,-0.0704299807548523,-0.026174969971179962,0.04298240691423416,-0.016204938292503357,-0.07288248091936111,-0.20735368132591248,-0.08064927905797958,0.1351645290851593,0.05046505481004715,-0.0590318962931633,-0.06759284436702728,0.17029425501823425,-0.16137559711933136,-0.059622589498758316,-0.2214471399784088,-0.17064200341701508,0.17665822803974152,-0.18070924282073975,0.02935868874192238,-0.07570195943117142,0.08951439708471298,0.08540347218513489,-0.069367416203022,0.17949576675891876,-0.2294761836528778,0.04939888417720795,0.01872768998146057,-0.016265323385596275,0.1244894340634346,0.22591781616210938,0.06022794544696808,-0.030422579497098923,0.18308588862419128,0.11813344806432724,0.04421062394976616,-0.04906754568219185,0.04142232984304428,0.211733877658844,0.05952276661992073,-0.035765063017606735,-0.09512782841920853,0.0003829388879239559,0.05520397424697876,-0.033065102994441986,-0.12090849876403809,0.15165354311466217,-0.18947364389896393,0.08651317656040192,-0.21249373257160187,0.20907039940357208,0.24654535949230194,0.2117319256067276,0.07726386189460754,-0.17711709439754486,-0.13528390228748322,-0.039780814200639725,-0.20877209305763245,0.010136866010725498,-0.07265084236860275,0.10902689397335052,0.17139358818531036,-0.11735618114471436,0.16330090165138245,0.08775995671749115,-0.10933110117912292,0.12339217215776443,-0.18454332649707794,-0.1399216502904892,-0.07676678895950317,-0.007533120922744274,0.022911053150892258,-0.038914911448955536,-0.11234987527132034,0.0088436808437109,0.09252884984016418,0.16943371295928955,0.10998988151550293,0.03351861611008644,0.03936941549181938,-0.15883390605449677,0.04089280217885971,-0.23115673661231995,-0.08860323578119278,-0.05951312929391861,0.05331488698720932,0.019883451983332634,-0.1264394074678421,-0.06285514682531357,-0.184414342045784,0.02033594250679016,0.006823597941547632,-0.038902804255485535,-0.04565310850739479,0.02633955143392086,-0.13885216414928436,-0.03246103599667549,0.07663171738386154,-0.012890797108411789,-0.006908967159688473,0.14635252952575684,0.061660610139369965,-0.07379437983036041,0.03798062726855278,-0.0010539303766563535,0.012174525298178196,0.10484492778778076,0.12638098001480103,-0.20927207171916962,-0.11632224917411804,0.08377131074666977,0.0782916471362114,0.07028179615736008,0.0635729506611824,-0.06174589693546295,-0.1589852273464203,-0.004391454625874758,0.014128174632787704,-0.031124986708164215,0.019461609423160553,0.023832231760025024,-0.10384748876094818,-0.10595676302909851,0.06654150038957596,-0.1830539107322693,0.054438162595033646,-0.015530266799032688,0.09892584383487701,0.11018309742212296,-0.11344306170940399,0.16034914553165436,-0.020095348358154297,-0.026532186195254326,0.14784932136535645,0.008010590448975563,0.020853370428085327,-0.29652661085128784,0.4330518841743469,-0.08853453397750854,0.09337729960680008,0.024261273443698883,0.00978873297572136,0.05020366236567497,-0.22464120388031006,-0.1486368626356125,0.17301048338413239,0.1911430060863495,-0.05799967795610428,-0.0629182681441307,0.22220617532730103,0.04239755868911743,0.013583164662122726,-0.4247537851333618,0.2312537282705307,-0.034631721675395966,-0.09663595259189606,0.020221266895532608,0.018069956451654434,-0.07829615473747253,-0.220187708735466,0.18345759809017181,0.3724161982536316,0.09625694155693054,0.22913794219493866,0.10871171206235886,-0.05116848647594452,0.1593119204044342,-0.517025887966156,-0.04958247393369675,-0.06669414043426514,0.03720403462648392,-0.059509214013814926,-0.09901443123817444,-0.06101098656654358,-0.12459883838891983,0.2816053628921509,-0.15520305931568146,-0.2434050440788269,-0.014583956450223923,-0.13381601870059967,0.14226169884204865,0.08046958595514297,-0.1124056726694107,0.005036350339651108,0.1226862445473671,-0.041733141988515854,-0.09129456430673599,0.12964394688606262,0.0602678507566452,0.2514955401420593,-0.07618498802185059,0.07089799642562866,0.09909776598215103,0.0014320425689220428,-0.19802364706993103,0.10989466309547424,0.0846397876739502,-0.056486304849386215,-0.010095157660543919,0.08918239921331406,0.15198081731796265,0.0676649808883667,-0.14930041134357452,0.017012689262628555,0.04774249345064163,0.1404769867658615,0.07466978579759598,0.04494830593466759,-0.10839706659317017,0.02167995274066925,-0.17256663739681244,-0.03875153511762619,0.09326069802045822,0.016981765627861023,-0.002749765058979392,0.11476299166679382,0.02677554450929165,0.16331933438777924,0.02651672251522541,0.043623462319374084,0.13309496641159058,0.05560319498181343,0.11177334934473038,0.21306274831295013,-0.0800718143582344,0.13305971026420593,-0.09777525067329407,0.025644458830356598,0.11213254928588867,-0.081648088991642,-0.138805091381073,0.10340698808431625,-0.22712068259716034,0.2160291224718094,0.03024354763329029,0.03603717312216759,0.16917428374290466,-0.05065838247537613,0.16734054684638977,0.10545191168785095,-0.15504585206508636,0.017973721027374268,0.07054083049297333,-0.05603327974677086,-0.0725935623049736,-0.036652497947216034,0.17300298810005188,0.19025833904743195,-0.009971456602215767,-0.01590331271290779,-0.04576460272073746,-0.06113050878047943,0.16909047961235046,0.05747823044657707,0.14738738536834717,0.041613176465034485,-0.17127946019172668,-0.141725555062294,-0.17072871327400208,0.06178707629442215,0.1883036196231842,-0.012114868499338627,0.23448914289474487,-0.016569990664720535,-0.09514566510915756,0.059244439005851746,-0.011625324375927448,-0.0506974495947361,0.19811485707759857,0.06423936039209366,0.12081186473369598,0.17961625754833221,0.08377096056938171,0.09715130180120468,-0.06640772521495819,-0.23509342968463898,0.13381798565387726,0.10651338845491409,-0.14041820168495178,-0.027318527922034264,-0.16654564440250397,0.08983147889375687,-0.019015150144696236,-0.04441351443529129,0.0713694840669632,-0.17469823360443115,-0.03138871490955353,0.1598900854587555,-0.08667469024658203,-0.09727024286985397,0.07357442378997803,-0.07526654005050659,-0.026853075250983238,0.23552094399929047,-0.0194731205701828,-0.2501881420612335,-0.013835198245942593,0.0152125870808959,0.06036166101694107,-0.0687749907374382,0.03648652881383896,-0.047503724694252014,-0.16018114984035492,0.08498615026473999,0.13237476348876953,0.01660323701798916,0.08084394037723541,-0.12717117369174957,0.008132992312312126,0.03601996973156929,0.05591001734137535,0.10442869365215302,-0.059065673500299454,-0.13760335743427277,0.08175082504749298,0.01430018711835146,-0.20779086649417877,-0.08638516068458557,0.08408091217279434,0.050447430461645126,0.08469656109809875,0.14790867269039154,0.06610897928476334,-0.2933579087257385,-0.08594430983066559,0.07662787288427353,-0.07291492819786072,-0.05387809872627258,0.08949927240610123,-0.1249816045165062,-0.0712854415178299,-0.06476325541734695,-0.06462790071964264,0.012946988455951214,-0.001161515829153359,-0.12089569866657257,0.0632682740688324,0.07349836081266403,-0.07854209095239639,0.16410575807094574,-0.004507323727011681,-0.13494589924812317,0.20111572742462158,0.029044585302472115,0.02319401502609253,0.16659337282180786,-0.21144409477710724,-0.12764181196689606,0.15475304424762726,0.07786732912063599,-0.01962093450129032,-0.17845173180103302,-0.19667448103427887,0.058334413915872574,-0.02466331049799919,0.10603272914886475,0.0032593533396720886,-0.021193852648139,-0.06681276112794876,0.09375133365392685,0.03901657089591026,0.20319600403308868,-0.08213288336992264,-0.12926095724105835,0.11165060102939606,-0.0013276763493195176,0.009334651753306389,-0.029164379462599754,-0.04833231866359711,0.0715709924697876,0.153611958026886,0.01621033251285553,-0.03224658593535423,-0.11137067526578903,-0.024123014882206917,-0.13600343465805054,0.03484141454100609,-0.0553092285990715,-0.014592010527849197,0.16259095072746277,-0.054808977991342545,-0.13628630340099335,-0.032887306064367294,0.11230941861867905,0.04863806068897247,-0.024588823318481445,-0.019796863198280334,-0.018204446882009506,-0.1400042623281479,0.014970027841627598,-0.07533110678195953,0.052619364112615585,-0.009466432966291904,-0.09472712874412537,0.194928377866745,0.10929372161626816,-0.17396727204322815,-0.11720428615808487,-0.040477730333805084,0.16358041763305664,-0.024563420563936234,0.15097451210021973,-0.08962208032608032,-0.1716577410697937,0.05052445828914642,-0.0932195857167244,0.03138362243771553,-0.09340392798185349,-0.059144459664821625,-0.16899093985557556,-0.10179963707923889,0.1447489857673645,-0.08887843787670135,-0.08634359389543533,0.04496748745441437,-0.14113987982273102,0.00667413417249918,-0.11676320433616638,0.1380651444196701,-0.0017991403583437204,0.015271742828190327,0.010003483854234219,-0.07650355994701385,-0.1924864500761032,0.0968906357884407,0.18257184326648712,0.07163242995738983,-0.06886246800422668,0.004064867272973061,0.09202180802822113,-0.03427621349692345,-0.08110470324754715,-0.015751587226986885,-0.010281262919306755,0.02498466894030571,-0.07005590200424194,0.06774038076400757,0.08311357349157333,0.08361455798149109,0.06594660878181458,-0.04370293766260147,0.2505856156349182,-0.17963972687721252,0.03886212408542633,0.07467223703861237,0.06339599192142487,0.13183733820915222,-0.10652843862771988,-0.15584592521190643,0.17396698892116547,-0.13521167635917664,0.20186245441436768,-0.17123809456825256,-0.029687276110053062,0.020499709993600845,-0.1253131479024887,-0.1490989476442337,0.04980917647480965,0.00022025454381946474,0.062412865459918976,-0.002625920344144106,-0.087753064930439,0.02817383036017418,0.25837039947509766,-0.20961277186870575,0.0006078819860704243,-0.2523646056652069,-0.05741853639483452,0.00124741334002465,-0.015260071493685246,-0.27796509861946106,0.08229861408472061,0.1965801864862442,-0.06787048280239105,0.03562874719500542,0.07663358747959137,0.0675714835524559,0.04880182445049286,0.018855473026633263,0.12455910444259644,0.1342136263847351,-0.09610389173030853,-0.13884761929512024,0.013409534469246864,-0.002269082935526967,-0.11144483089447021,-0.0848085880279541,0.15273666381835938,0.02407427877187729,0.07341960817575455,-0.043760258704423904,-0.08419255167245865,0.011526654474437237,0.08829182386398315,-0.09995631128549576,0.05229805037379265,-0.01214017067104578,0.13885807991027832,0.09520932286977768,0.044884782284498215,-0.14869968593120575,-0.11904368549585342,-0.043094366788864136,0.12664006650447845,-0.006737884134054184,-0.09654569625854492,0.0446326807141304,-0.06442739814519882,0.13119089603424072,-0.08446057140827179,0.08689722418785095,-0.037961430847644806,-0.15441912412643433,0.14127638936042786,0.23965199291706085,0.2645109295845032,-0.021490465849637985,-0.11492055654525757,0.030988944694399834,-0.212757408618927,0.0058339727111160755,-0.0002885610447265208,-0.007459377869963646,-0.02924298122525215,-0.0009373550419695675,-0.016430281102657318,-0.13691090047359467,-0.09806843101978302,-0.14669521152973175,-0.07604791969060898,-0.004436366260051727,0.03023209236562252,-0.05613110587000847,0.13519850373268127,0.02469003200531006,-0.271168977022171,-0.00016170949675142765,-0.2990890443325043,0.14403320848941803,-0.05252193287014961,-0.11563211679458618,-0.10429095476865768,-0.2566075921058655,0.06492061913013458,0.2132374793291092,-0.06371553987264633,0.08877526968717575,-0.03581789508461952,-0.020281735807657242,-0.09600871801376343,-0.09463933855295181,0.08258569240570068,-0.16379252076148987,-0.08618693053722382,-0.0015123855555430055,-0.03656526282429695,-0.2009979486465454,-0.19837306439876556,-0.053746309131383896,-0.2020384520292282,0.016636785119771957,-0.3033827543258667,0.17262734472751617,0.11045995354652405,-0.09590823203325272,-0.04313358664512634,0.04990948364138603,-0.030474606901407242,0.009963740594685078,0.023843323811888695,0.30322861671447754,-0.024459123611450195,0.044904377311468124,0.1003047525882721,-0.03975101560354233,0.0698857307434082,0.1343311220407486,0.05351465567946434,-0.14523258805274963,0.08431099355220795,0.03781159967184067,-0.08483685553073883,-0.10526245087385178,0.09573271125555038,0.13292761147022247,-0.10772290080785751,0.15025903284549713,0.11455253511667252,-0.10167695581912994,-0.006952736992388964,0.13751249015331268,0.13866086304187775,0.03747660294175148,-0.015243804082274437,-0.06573449820280075,-0.025191115215420723,0.0459577850997448,0.23044414818286896,0.06801088899374008,0.013482047244906425,0.08393345028162003,0.0030282079242169857,0.0013333463575690985,0.0721956193447113,0.055487506091594696,-0.12085937708616257,0.07925763726234436,-0.20134586095809937,0.176365464925766,-0.14286349713802338,0.13875900208950043,-0.11393118649721146,-0.23392169177532196,0.03934110328555107,0.024725547060370445,0.1620716154575348,-0.07124634087085724,-0.13335466384887695,0.0896560549736023,0.1165209487080574,-0.02969956398010254,0.0747080147266388,-0.1447703242301941,-0.03561937436461449,0.16340823471546173,0.038950685411691666,-0.08165187388658524,0.09871454536914825,-0.00496641593053937,-0.14724723994731903,-0.09403105825185776,0.053418371826410294,-0.03395441919565201,-0.020403867587447166,0.20719212293624878,-0.021310381591320038,-0.26243576407432556,-0.15383924543857574,0.005295388400554657,-0.051426950842142105,-0.14680086076259613,0.037181757390499115,-0.1469666212797165,-0.05453747138381004,-0.1519070565700531,0.017532682046294212,0.12620152533054352,-0.15908993780612946,0.08356868475675583,-0.06551697105169296,-0.035729799419641495,0.082302026450634,-0.16783833503723145,-0.18215622007846832,0.1757490336894989,0.08429448306560516,-0.3273942470550537,0.1491672843694687,-0.053398098796606064,0.21127189695835114,-0.11096011847257614,-0.10215356200933456,-0.10065761208534241,0.054076097905635834,0.09508252143859863,0.0006719163502566516,-0.0879829078912735,-0.16293776035308838,-0.13605044782161713,-0.06426868587732315,0.0033053469378501177,0.09999951720237732,-0.14941607415676117,0.08309812843799591,0.1895006150007248,0.05883979797363281,-0.015895769000053406,0.08706747740507126,0.15587401390075684,-0.2079796940088272,0.2373112440109253,-0.1177552118897438,0.02135019749403,-0.14276142418384552,0.11097203940153122,0.07714930176734924,-0.06618142873048782,-0.015385369770228863,-0.11746945232152939,-0.08101236820220947,0.06162028759717941,0.05425528809428215,0.23308828473091125,-0.12121821194887161,0.08566106855869293,0.13702847063541412,-0.008445031940937042,-0.02521228790283203,0.1050209030508995,-0.2112545669078827,0.13907404243946075,0.18763819336891174,-0.015552978031337261,-0.029763435944914818,0.3116097152233124,-0.2706032991409302,0.20008428394794464,-0.2967013120651245,0.19991159439086914,-0.05782704055309296,0.16759899258613586,-0.12036996334791183,0.21959111094474792,-0.14769157767295837,-0.06005360931158066,0.05592353269457817,0.11291911453008652,-0.09865277260541916,-0.1460636705160141,-0.001708868658170104,0.10867767781019211,-0.14880934357643127,0.2557542026042938,0.175008624792099,-0.09074278920888901,0.05678735673427582,0.00704026035964489,-0.0879347175359726,-0.12109187245368958,-0.10150966048240662,-0.0065242634154856205,0.054641544818878174,-0.03379744291305542,0.010680196806788445,-0.01920783333480358,-0.07475052028894424,0.10456503927707672,0.0040949261747300625,0.26495563983917236,-0.06359928101301193,0.10795190930366516,-0.19490191340446472,-0.10138639062643051,0.1265982687473297,-0.07196265459060669,-0.06709952652454376,0.1108112782239914,-0.11087953299283981,0.016790689900517464,0.09544780105352402,-0.21916761994361877,-0.3657768666744232,0.08893483877182007,-0.24521654844284058,0.033860497176647186,-0.177688866853714,-0.05878986045718193,0.0517934188246727,0.2804226875305176,0.1529294103384018,0.05904759466648102,-0.05493324622511864,0.12312155216932297,-0.0009648437262512743,-0.01282645296305418,0.07498282194137573,-0.13689596951007843,-0.09649626910686493,0.09743406623601913,-0.06173503398895264,-0.07370951026678085,-0.13307301700115204,0.1106574535369873,-0.15953238308429718,-0.2480034977197647,0.004663212690502405,-0.039123401045799255,-0.1469714641571045,0.06590893864631653,0.001591173349879682,-0.07841510325670242,0.04360063374042511,-0.1078050434589386,0.13746993243694305,0.10326529294252396,0.023592965677380562,0.016402168199419975,-0.07038042694330215,0.03944394364953041,0.15110699832439423,-0.05884316936135292,0.1725614070892334,-0.1072387769818306,-0.11639156192541122,-0.0725865438580513,0.014377237297594547,-0.12557493150234222,-0.14117220044136047,0.12213975936174393,0.007247996516525745,-0.09347201883792877,0.11049675941467285,-0.060414716601371765,0.16318607330322266,-0.144134983420372,-0.09758788347244263,0.1557636857032776,-0.12685632705688477,-0.013703431934118271,0.11384899169206619,0.0005053657805547118,-0.06662143766880035,0.16177846491336823,-0.026693085208535194,-0.09128174185752869,0.0848134309053421,0.0771537646651268,-0.0657200738787651,0.292888879776001,-0.10750183463096619,-0.07047764956951141,0.043749503791332245,-0.07965170592069626,-0.15372604131698608,-0.15546661615371704,0.07156304270029068,0.037174370139837265,0.022171400487422943,0.13229380548000336,0.003601808100938797,-0.05256468430161476,-0.06338858604431152,-0.04000811651349068,-0.01694183051586151,0.006025480572134256,-0.1268344670534134,-0.07610180974006653,-0.18605735898017883,-0.057086046785116196,0.008749771863222122,0.12950582802295685,-0.0815371721982956,0.25154614448547363,-0.0886118933558464,-0.11450386792421341,0.10380590707063675,-0.11448989063501358,0.08669878542423248,0.11359895765781403,-0.39403533935546875,0.03925658389925957,-0.2144620716571808,0.41617223620414734,0.07118687778711319,0.04828459769487381,0.06509369611740112,-0.02923591062426567,0.05536491051316261,0.043619293719530106,-0.0843450054526329,0.026273779571056366,0.07773257046937943,0.0011983764125034213,0.07841948419809341,-0.007826131768524647,-0.08117623627185822,-0.023960337042808533,-0.0661148950457573,0.01848447509109974,-0.286796897649765,-0.4040079712867737,0.7746449708938599,0.3814496099948883,-0.4345130920410156,0.10906995087862015,-0.21047501266002655,-0.00874271895736456,0.5432859063148499,-0.737830638885498,0.8710372447967529,0.5692100524902344,0.1685810536146164,-0.2462402731180191,0.12211547046899796,-0.5912917852401733,0.3305496275424957,-0.21016612648963928,-0.023330312222242355,-0.3702656030654907,0.21050867438316345,0.08713509142398834,0.3607044517993927,0.036084312945604324,-0.021194562315940857,0.15680073201656342,0.13762599229812622,0.2700467109680176,-0.3384513258934021,-0.024581365287303925,0.005752853583544493,-0.03894028440117836,0.1866634041070938,-0.2545880377292633,-0.005391725804656744,0.046014249324798584,0.10768411308526993,0.05048711970448494,0.06343621760606766,-0.3969852924346924,-0.18599779903888702,0.26532983779907227,0.04150499776005745,-0.002210119739174843,0.07096842676401138,0.3532935380935669,0.15879926085472107,0.024614762514829636,0.2427300661802292,-0.2075643539428711,-0.18815377354621887,-0.326043039560318,0.2792821228504181,-0.30877193808555603,0.10419457405805588,-0.2720262110233307,-0.37164822220802307,0.0828130766749382,-0.1416109949350357,0.21236222982406616,0.12282274663448334,-0.22407649457454681,0.0342290922999382,-0.018953440710902214,0.24059772491455078,0.12633205950260162,0.13035893440246582,0.018250197172164917,-0.18996362388134003,0.12834453582763672,-0.23946306109428406,0.21644683182239532,0.15939953923225403,-0.002117287367582321,0.06909586489200592,0.24668161571025848,0.05473585054278374,0.07730724662542343,0.11776295304298401,-0.15032102167606354,0.16818881034851074,-0.08513990044593811,0.1569962501525879,-0.12050080299377441,0.18132652342319489,-0.21246574819087982,0.1187622994184494,-0.0058412449434399605,0.11409155279397964,-0.026170775294303894,-0.1204778403043747,0.2090737670660019,-0.32556384801864624,-0.3065979480743408,0.19494278728961945,-0.05560874938964844,-0.09060334414243698,-0.0008982794242911041,-0.04483360797166824,-0.050170209258794785,-0.07360479980707169,-0.12974168360233307,0.2146201729774475,0.04272528365254402,-0.10619375109672546,-0.18031449615955353,-0.004918745253235102,0.16777554154396057,0.007483880966901779,0.1358000785112381,0.2386137694120407,0.09701349586248398,0.17784638702869415,0.1460917592048645,-0.2530589699745178,0.047671783715486526,0.2595406770706177,-0.2567422091960907,0.13051214814186096,-0.10731778293848038,-0.436558336019516,0.2260073572397232,0.13656601309776306,-0.03171895071864128,0.1335216611623764,0.058050736784935,0.1360468715429306,0.19776813685894012,0.25498685240745544,0.05593910440802574,-0.18173791468143463,-0.15993210673332214,0.10907498002052307,-0.2039414495229721,0.12578150629997253,-0.17617417871952057,0.08219421654939651,0.16100575029850006,0.14819002151489258,0.30684545636177063,-0.06163870170712471,0.09979056566953659,0.14193150401115417,-0.10161735862493515,-0.17400917410850525,0.2493325024843216,-0.08474288135766983,0.20531558990478516,0.1476030796766281,0.013384141959249973,-0.22061501443386078,0.021000713109970093,-0.15367454290390015,0.0862778052687645,-0.14600439369678497,0.17022961378097534,-0.15618650615215302,-0.01984112523496151,0.007532214745879173,0.10818921774625778,0.21661023795604706,-0.15237973630428314,-0.14100973308086395,0.11622738838195801,0.09535731375217438,0.1512068212032318,-0.1250106692314148,-0.11272366344928741,0.029840871691703796,-0.027785999700427055,0.07143424451351166,-0.06863252073526382,-0.1062302365899086,-0.1978524923324585,0.19720591604709625,-0.06906753033399582,0.26249945163726807,-0.1699608564376831,-0.14833533763885498,-0.28796473145484924,0.027811376377940178,-0.15261009335517883,0.1702037751674652,-0.075388602912426,0.2213486135005951,0.10448171198368073,-0.198918879032135,0.058831728994846344,0.0023442283272743225,-0.04139890894293785,0.09090671688318253,0.054577842354774475,0.13280853629112244,0.15994210541248322,-0.12993228435516357,-0.0825188085436821,-0.20410342514514923,0.16899637877941132,0.2624463737010956,0.13399383425712585,-0.1877799779176712,-0.14063899219036102,-0.19877088069915771,0.28396129608154297,-0.38181164860725403,-0.1814110279083252,0.07221504300832748,-0.005811584182083607,-0.3039505183696747,-0.08427072316408157,-0.08566158264875412,-0.04847000166773796,0.09422442317008972,0.13423287868499756,-0.26809459924697876,-0.1638261079788208,0.10382077842950821,-0.07699476927518845,-0.18043391406536102,-0.03033803589642048,0.01299890037626028,0.1175091490149498,0.04839199408888817,-0.17542202770709991,-0.16292302310466766,0.33251312375068665,-0.22073359787464142,0.020031718537211418,0.059016983956098557,-0.14478987455368042,0.13698485493659973,-0.13786515593528748,-0.11155684292316437,0.09876815974712372,0.07336670905351639,-0.31076109409332275,0.07872126251459122,0.2320980578660965,-0.16801998019218445,0.1559097021818161,0.0805557370185852,0.11456835269927979,-0.17473702132701874,-0.08256594836711884,-0.10541214048862457,-0.08202328532934189,0.1418481022119522,-0.1952236294746399,0.06594333797693253,0.256896048784256,0.12688954174518585,0.13957004249095917,-0.0340253971517086,0.23764553666114807,0.10645706951618195,-0.15812531113624573,-0.016407977789640427,-0.12180042266845703,-0.10476792603731155,-0.27432945370674133,0.0383850559592247,-0.0884644016623497,0.07433365285396576,-0.26145705580711365,-0.09477154165506363,0.269815593957901,0.26465219259262085,0.1937454342842102,-0.13511383533477783,0.09239259362220764,-0.05078545957803726,0.15448340773582458,0.052518121898174286,0.0492287240922451,0.04462131857872009,0.10427068918943405,-0.03515508398413658,0.10010117292404175,0.03338802978396416,0.019405992701649666,-0.15665985643863678,-0.11280151456594467,0.021573582664132118,0.06854330748319626,0.11823956668376923,0.11464587599039078,0.039004743099212646,0.005465009715408087,0.3297862708568573,-0.5357747077941895,0.12764820456504822,-0.08371400833129883,0.23282285034656525,-0.0683392733335495,0.27230751514434814,-0.38793545961380005,-0.15235650539398193,-0.01796754077076912,-0.026529991999268532,0.20576326549053192,0.1090904250741005,-0.3663550615310669,-0.030632296577095985,0.08521163463592529,-0.10843725502490997,0.07312880456447601,0.2673163414001465,-0.13560084998607635,-0.2745087444782257,-0.18245907127857208,-0.00792247336357832,0.06670983135700226,0.05230650678277016,-0.061957791447639465,-0.060016095638275146,-0.07669395208358765,0.08122637867927551,-0.05509289354085922,0.11522079259157181,-0.5850721597671509,0.03151810169219971,0.366324245929718,-0.7299137115478516,-0.14062656462192535,-0.10413241386413574,-0.004336379934102297,-0.06348176300525665,0.1369006335735321,-0.010855307802557945,-0.16806156933307648,-0.0847952738404274,-0.44829246401786804,-0.03324974328279495,0.05926620960235596,-0.1957988291978836,-0.06825866550207138,-0.1403137892484665,0.1660132259130478,0.10419750958681107,0.18902580440044403,-0.14889447391033173,-0.134786456823349,0.001427290728315711,-0.03638089448213577,0.08885976672172546,0.07111316919326782,0.05935487523674965,-0.01743982546031475,0.07290644943714142,-0.00214816490188241,0.13962332904338837,-0.08197206258773804,-0.10676249861717224,0.09069497883319855,-0.24281060695648193,0.10188499093055725,0.05146506801247597,-0.24064189195632935,-0.057412803173065186,0.07211355119943619,0.18042440712451935,0.0967666283249855,-0.16505177319049835,-0.08517958968877792,0.10152570903301239,0.16323250532150269,-0.001682743662968278,0.10792364925146103,-0.025712866336107254,0.19352056086063385,-0.023385901004076004,-0.13712801039218903,0.14110790193080902,0.03637446090579033,-0.0980851799249649,-0.021995069459080696,0.07586061209440231,-0.2820495665073395,0.06842389702796936,0.11679693311452866,0.07315384596586227,-0.15837667882442474,0.09938689321279526,0.007672865409404039,-0.018754174932837486,-0.0035479350481182337,0.030961502343416214,0.08143074065446854,0.3073752820491791,-0.03933052718639374,-0.0552808940410614,0.021305818110704422,0.23522794246673584,-0.08747968822717667,0.16970883309841156,0.04104507714509964,0.12099815905094147,0.10693719983100891,0.00477831345051527,-0.0723048597574234,-0.061815183609724045,-0.028622649610042572,0.11286436021327972,0.07411640882492065,-0.07446133345365524,0.10792649537324905,-0.07947274297475815,-0.0006290093879215419,-0.09039852768182755,0.10035624355077744,0.12615670263767242,0.09268065541982651,-0.05984429270029068,-0.0006821107817813754,0.1168127954006195,0.3074635863304138,0.1708274781703949,0.0014171806396916509,0.09613591432571411,0.03730885684490204,-0.11376979202032089,0.03819553926587105,0.017516490072011948,-0.1081189513206482,0.06068683788180351,0.04424541816115379,0.1377469003200531,-0.05805598571896553,-0.05084984377026558,-0.03047209605574608,0.008204394020140171,0.022338174283504486,-0.16998091340065002,0.3784668445587158,0.02088669128715992,-0.022634772583842278,0.06890875846147537,0.15380682051181793,0.07158370316028595,0.15923745930194855,0.012970387935638428,0.12748748064041138,0.10174402594566345,-0.15853121876716614,0.04218089580535889,0.15986564755439758,-0.13027694821357727,-0.10366044193506241,-0.09825487434864044,0.12655775249004364,0.049235597252845764,0.010525099001824856,0.11153752356767654,-0.044151611626148224,0.001775815850123763,0.21654610335826874,0.13013841211795807,-0.1340072751045227,-0.18091681599617004,-0.2054009735584259,-0.012029224075376987,0.12702755630016327,0.0006549849640578032,0.39453357458114624,-0.0982634425163269,0.11066997051239014,0.260407954454422,-0.0557023286819458,0.07672356814146042,0.17776893079280853,-0.17316313087940216,0.09726547449827194,0.1254294216632843,-0.1855039745569229,-0.1683380901813507,0.16853506863117218,0.012411730363965034,-0.19704119861125946,0.05423283949494362,-0.05850167199969292,0.12419940531253815,-0.0009396418463438749,-0.12666510045528412,0.06033122539520264,0.011450226418673992,0.008586802519857883,-0.12129636853933334,0.08030521869659424,0.024668103083968163,-0.014128100126981735,0.019241798669099808,0.09595366567373276,0.07016060501337051,-0.0196999404579401,-0.1301538646221161,-0.03626466542482376,0.12028159201145172,0.044096849858760834,-0.02354106307029724,-0.10708606988191605,0.043012835085392,0.22872480750083923,0.018593592569231987,-0.11297997832298279,-0.19692157208919525,0.119405098259449,-0.06914791464805603,-0.025663800537586212,-0.017209121957421303,0.01697688177227974,-0.02172662504017353,0.1274237185716629,0.022821439430117607,-0.1686009168624878,0.0014847598504275084,-0.0021294376347213984,-0.2539415657520294,0.021507009863853455,0.02466154657304287,-0.2702037990093231,-0.0987047553062439,0.024420060217380524,0.024641141295433044,0.04695800691843033,0.034043218940496445,0.12065772712230682,-0.10197949409484863,0.047756895422935486,-0.06220291927456856,0.05467098206281662,0.0237469170242548,0.011666414327919483,0.29425984621047974,-0.02492997795343399,0.14705988764762878,0.23781421780586243,0.24398916959762573,-0.03415598347783089,0.11985840648412704,-0.1935955435037613,0.22020642459392548,-0.052022408694028854,-0.06251222640275955,-0.0741240382194519,-0.1152544841170311,0.050392523407936096,0.03475186228752136,0.09339821338653564,0.06237352266907692,-0.011913811787962914,-0.13715402781963348,-0.07269877940416336,-0.11972766369581223,0.09338205307722092,-0.10567445307970047,-0.035411398857831955,0.00444435840472579,-0.023423243314027786,0.0452476441860199,0.23204590380191803,-0.0784248635172844,0.23956140875816345,-0.005953536368906498,0.14340847730636597,-0.0028810056392103434,0.0663989782333374,-0.14101628959178925,-0.02749221958220005,0.1162375807762146,-0.1085861548781395,0.06497849524021149,0.10657361894845963,-0.01674223504960537,-0.011528362520039082,0.0939902812242508,0.04868920147418976,0.11879324167966843,-0.09124992787837982,-0.14294247329235077,-0.21470597386360168,-0.3337995111942291,-0.13464586436748505,-0.008604824542999268,0.023580672219395638,0.04445620998740196,-0.12253348529338837,-0.10107853263616562,0.021612951532006264,-0.12933023273944855,-0.08200809359550476,-0.07043933868408203,-0.11445823311805725,-0.257713258266449,-0.10436655580997467,-0.13891050219535828,-0.2336333692073822,-0.18237709999084473,0.22674939036369324,-0.0002610695955809206,-0.1384068727493286,-0.10322310030460358,0.08507588505744934,0.1034141480922699,-0.03870698809623718,0.05731993913650513,-0.07579457014799118,0.0594312958419323,-0.2025240659713745,0.17997077107429504,0.05197828635573387,-0.23729576170444489,0.09208221733570099,0.16558410227298737,-0.06021680682897568,0.11383357644081116,-0.1450996696949005,-0.08140434324741364,0.007271863985806704,-0.029112813994288445,0.11582239717245102,0.1396321803331375,0.07368028163909912,-0.02530726045370102,-0.1977258175611496,-0.3986155688762665,-0.020841674879193306,0.14705035090446472,-0.7616584300994873,0.0403297133743763,0.0594029538333416,-0.43037787079811096,-0.1360260546207428,0.1237827017903328,-0.03121894784271717,-0.05907006189227104,-0.043647389858961105,-0.4469050168991089,0.17717231810092926,0.09525299072265625,-0.2237926572561264,0.04765644297003746,0.037968218326568604,-0.15663020312786102,-0.11063480377197266,0.08058319240808487,-0.11367005109786987,0.1993962824344635,0.10786962509155273,0.1855209469795227,-0.07018282264471054,-0.02993706613779068,-0.17047446966171265,0.03786909207701683,0.10196694731712341,-0.38596391677856445,-0.23978686332702637,-0.1375686377286911,0.4611806273460388,-0.1079137846827507,0.12532399594783783,0.1671750545501709,-0.08588874340057373,0.019031699746847153,0.05438557267189026,-0.321358859539032,-0.1974337249994278,-0.29080885648727417,-0.1102464348077774,0.048522211611270905,-0.20819613337516785,0.010337701998651028,0.024063827469944954,-0.08796169608831406,0.168277308344841,0.22011123597621918,0.2842811644077301,0.23595447838306427,0.07740142196416855,-0.04759415239095688,-0.042921096086502075,0.11880192905664444,-0.03530328720808029,-0.010958840139210224,-0.13994020223617554,-0.04761666804552078,-0.010999944061040878,-0.02419983595609665,-0.10680937767028809,-0.0017636718694120646,-0.08015810698270798,-0.07052061706781387,-0.043246038258075714,-0.04999789968132973,-0.15579423308372498,-0.14081278443336487,-0.030037090182304382,0.05190686136484146,0.01993660442531109,-0.12935610115528107,0.09436244517564774,0.1070089340209961,0.010759633965790272,0.03398939222097397,-0.005914617795497179,-0.18351159989833832,0.034830860793590546,-0.03400885686278343,-0.16069559752941132,0.16306345164775848,0.004622829146683216,-0.1960562914609909,-0.02699618600308895,0.2341165393590927,-0.08544976264238358,0.07332485914230347,0.10279364883899689,0.021235879510641098,-0.009205572307109833,-0.025325387716293335,0.2475353628396988,-0.04613431170582771,0.015194825828075409,-0.003192765172570944,0.15466442704200745,-0.3270484209060669,0.021879395470023155,-0.17470373213291168,-0.1026938408613205,0.021280361339449883,0.0627860426902771,-0.11918927729129791,0.11088923364877701,-0.05983457341790199,0.016921887174248695,0.05898791924118996,-0.15269963443279266,-0.0016611795872449875,-0.16227637231349945,-0.2947295606136322,-0.2079644799232483,0.12618130445480347,-0.06212509050965309,0.13594575226306915,-0.00256557809188962,0.004304538015276194,0.0362454429268837,0.12505708634853363,-0.07625357806682587,0.1091109961271286,-0.03299342468380928,-0.14784878492355347,-0.050037041306495667,0.07540861517190933,-0.44138389825820923,-0.1414007842540741,-0.06920965015888214,0.11090931296348572,-0.13675734400749207,-0.03238314390182495,-0.12105368822813034,-0.08010359853506088,0.0039344169199466705,-0.0201090257614851,0.010174624621868134,-0.1815384179353714,0.11753640323877335,-0.08728373795747757,0.04756852611899376,0.10158693790435791,-0.1036573275923729,-0.03302950784564018,-0.063090018928051,0.09997159242630005,0.0724295824766159,-0.12882640957832336,-0.04129187390208244,0.06054500862956047,0.058663029223680496,0.04370727762579918,-0.23799924552440643,-0.14211100339889526,-0.0807444229722023,-0.05032455176115036,0.2828761041164398,0.12764716148376465,0.06807636469602585,0.11662837117910385,0.14566268026828766,-0.16127228736877441,0.13366074860095978,-0.08481505513191223,0.041342344135046005,-0.07913410663604736,0.0728665143251419,0.059822212904691696,0.035834841430187225,0.0677049532532692,0.10322364419698715,0.03506254777312279,0.16319818794727325,-0.24259182810783386,-0.14196443557739258,-0.04027436301112175,-0.37988153100013733,-0.042458366602659225,-0.053041014820337296,0.09585151076316833,-0.13018731772899628,0.06858653575181961,-0.026036668568849564,0.14997892081737518,0.11663103848695755,0.019541079178452492,0.11378839612007141,0.11464212089776993,0.13118547201156616,0.008933166041970253,-0.06598517298698425,-0.09142964333295822,0.10489458590745926,0.0641048327088356,-0.10637392103672028,-0.10157178342342377,-0.09533639997243881,0.02000092715024948,-0.15321218967437744,-0.07256568968296051,0.11223568022251129,-0.20384712517261505,-0.09681490063667297,0.06420474499464035,0.007845464162528515,-0.12874473631381989,-0.15052418410778046,0.003904334269464016,-0.09208589792251587,-0.21479812264442444,0.12466344237327576,0.006377947982400656,0.05801066383719444,-0.1313113272190094,-0.033301834017038345,0.12636983394622803,-0.10577893257141113,0.11453855037689209,0.029476182535290718,0.07811135053634644,-0.29798993468284607,0.1348530352115631,-0.05317573994398117,-0.04884253442287445,0.01954830251634121,0.04063638299703598,0.08480502665042877,-0.03365166485309601,0.1619413197040558,-0.08555988222360611,0.17106211185455322,-0.1517302393913269,-0.19542542099952698,-0.20422367751598358,0.16574572026729584,-0.08111364394426346,0.03465089946985245,-0.18991917371749878,0.17219465970993042,-0.07929705828428268,-0.335889995098114,0.14572279155254364,0.05886107310652733,-0.08521323651075363,0.08979279547929764,-0.023571962490677834,-0.08888816833496094,0.03324339911341667,-0.07144317775964737,-0.05492110922932625,0.1427764743566513,-0.055615514516830444,-0.015834840014576912,0.03943409025669098,-0.1074424609541893,-0.3045133352279663,0.1042957678437233,-0.0989995226264,0.08504066616296768,0.05580640584230423,0.04400456324219704,-0.09133532643318176,0.10155691206455231,-0.13345247507095337,-0.07631796598434448,0.11002755165100098,-0.026492677628993988,-0.21856169402599335,0.12042152881622314,0.03413037955760956,0.006769604980945587,0.18677327036857605,0.2847716510295868,0.02583632990717888,0.000816082232631743,-0.0074343434534966946,0.04695544019341469,-0.038175564259290695,0.09873750060796738,-0.1463971734046936,0.05237136408686638,-0.02201893739402294,-0.024129023775458336,0.0823444202542305,-0.05180184915661812,0.04080938920378685,-0.152008056640625,0.12632881104946136,-0.0940030962228775,-0.10567236691713333,-0.15584975481033325,0.046209536492824554,-0.011810041032731533,-0.012056192383170128,0.16602642834186554,0.018373046070337296,-0.1503535360097885,0.26984289288520813,-0.07163683325052261,0.15574030578136444,0.07734200358390808,0.02447563223540783,0.24612124264240265,-0.01854625716805458,0.020103944465517998,0.09471456706523895,-0.173008993268013,-0.06971137225627899,0.021718278527259827,0.04947493225336075,-0.0023506549187004566,-0.09119231253862381,-0.07060394436120987,-0.09188289195299149,0.2371407449245453,0.18397670984268188,-0.11803218722343445,-0.13463692367076874,0.3815988600254059,-0.23150834441184998,-0.3168736696243286,0.04670638591051102,-0.009949374943971634,-0.16809535026550293,0.03075256571173668,-0.03853219747543335,-0.09918203949928284,0.07133422791957855,-0.15119323134422302,0.11818418651819229,0.053123679012060165,0.11198855936527252,0.28202369809150696,0.0363566018640995,0.05038740113377571,0.052090201526880264,-0.11318474262952805,-0.09117044508457184,-0.052783362567424774,0.08011801540851593,0.06046627089381218,-0.00215103174559772,-0.2167970985174179,0.02671727165579796,0.22818560898303986,-0.06305060535669327,-0.05197178199887276,-0.024528611451387405,0.2876022458076477,-0.07718386501073837,-0.05094616860151291,0.264950692653656,-0.012172984890639782,0.0521530844271183,0.1128496304154396,-0.017372872680425644,-0.10015372931957245,-0.11869878321886063,0.046852752566337585,0.1386495977640152,-0.02457687258720398,0.06283313035964966,-0.03170085698366165,-0.05013087019324303,-0.09606250375509262,0.09800994396209717,0.12089430540800095,-0.03339208662509918,0.018079573288559914,-0.29629600048065186,0.04293718561530113,0.05374714732170105,-0.0961451604962349,0.19329652190208435,0.07100428640842438,-0.042073655873537064,0.06888876110315323,-0.07849577814340591,0.008508083410561085,0.05880974233150482,-0.03253130242228508,-0.09238068759441376,0.11549041420221329,0.17165011167526245,-0.050503574311733246,0.02416100911796093,0.05103198438882828,-0.024359354749321938,-0.1871900111436844,-0.13312788307666779,0.16565027832984924,0.005645309574902058,0.082175612449646,-0.005645317025482655,0.10971136391162872,0.08410252630710602,-0.18874266743659973,-0.015381800010800362,0.17911510169506073,0.023716643452644348,-0.13691751658916473,-0.08006931096315384,-0.17944954335689545,0.16444386541843414,-0.020433947443962097,0.12725386023521423,-0.09941188991069794,-0.07547800987958908,-0.08107997477054596,0.0687192901968956,0.20753926038742065,-0.016069727018475533,0.010867681354284286,-0.05699075013399124,0.2300633192062378,-0.14320418238639832,-0.005097799934446812,-0.06898878514766693,-0.10091103613376617,-0.060100290924310684,-0.11619708687067032,-0.1406201273202896,-0.08870302885770798,-0.03830729052424431,-0.07186659425497055,-0.04049917683005333,-0.11930324882268906,-0.1104525700211525,0.03275277838110924,0.04476223140954971,0.012929216958582401,0.08259379863739014,-0.05874638259410858,0.056396931409835815,0.0831233337521553,0.0031003125477582216,-0.05327143520116806,0.003388509387150407,0.10184163600206375,-0.009461880661547184,-0.07285840064287186,0.08172831684350967,0.032544177025556564,-0.0367933064699173,0.07822055369615555,0.6508219242095947,0.40857043862342834,0.40064820647239685,-0.8735523223876953,-0.5770042538642883,0.051120903342962265,0.1377933770418167,0.05794970691204071,0.3817679286003113,0.229934960603714,-0.8008091449737549,0.3041768968105316,-0.035580113530159,-0.5440126657485962,-0.08501144498586655,-0.08026032894849777,-0.12255623936653137,-0.5063217282295227,0.4027140140533447,-0.4136868715286255,0.37666019797325134,0.12798091769218445,0.13703389465808868,-0.33017027378082275,-0.6514517664909363,0.07161208242177963,0.06473572552204132,-0.03336738422513008,0.2512994706630707,-0.21764682233333588,0.36525410413742065,-0.08338703215122223,-0.03271649777889252,-0.18423601984977722,0.0911344587802887,-0.15581588447093964,0.10111082345247269,0.010117457248270512,0.2104058563709259,0.00651982706040144,-0.15270553529262543,-0.058150436729192734,-0.11072704941034317,0.14705751836299896,0.007581022568047047,0.07968640327453613,0.2563377320766449,0.04628418758511543,0.16664652526378632,0.15857143700122833,-0.1800854504108429,-0.14996477961540222,-0.014741222374141216,-0.180442675948143,-0.202824667096138,0.14750297367572784,0.23639211058616638,-0.06441948562860489,-0.07121358066797256,-0.1263960748910904,-0.021679328754544258,0.04956712946295738,-0.13206560909748077,0.27475160360336304,-0.13776087760925293,0.1041923239827156,-0.2252652943134308,0.3275657892227173,0.03138764947652817,0.16383787989616394,0.14163623750209808,0.36743617057800293,-0.08391310274600983,-0.08985602855682373,-0.025211988016963005,-0.18374429643154144,0.1625531017780304,0.181252583861351,-0.12290935963392258,-0.057163167744874954,0.167361319065094,-0.12375561147928238,0.030361901968717575,0.0031155473552644253,0.20119330286979675,-0.0844205990433693,0.1903984099626541,-0.3130197525024414,0.161881685256958,0.20376555621623993,0.181964710354805,0.10270228236913681,-0.13819104433059692,-0.21120460331439972,-0.13965710997581482,-0.20911888778209686,-0.22580015659332275,0.22144025564193726,-0.01560940034687519,0.09105519205331802,-0.19764839112758636,0.04780072346329689,0.0486125648021698,-0.19019486010074615,0.22264628112316132,0.24795331060886383,-0.33185726404190063,0.22179335355758667,-0.15163005888462067,0.0017746746307238936,-0.4276135563850403,0.06705138832330704,-0.12658706307411194,-0.10240066051483154,-0.15472698211669922,-0.09115856885910034,-0.07379750907421112,-0.2415752112865448,0.3990250825881958,-0.029023420065641403,-0.12391965091228485,0.043635718524456024,-0.05316390469670296,0.021113600581884384,-0.039517324417829514,0.028498796746134758,-0.036568932235240936,-0.19466210901737213,-0.13179618120193481,0.09938403964042664,-0.03398456051945686,0.017816847190260887,0.3047111928462982,-0.1639045625925064,-0.0895681157708168,0.2001037895679474,-0.055796246975660324,0.10728931427001953,0.056999411433935165,0.032001741230487823,0.03824007138609886,-0.11213842779397964,0.1467716246843338,0.00169353187084198,-0.428314745426178,0.09079563617706299,-0.10681406408548355,-0.07298526167869568,0.20297229290008545,-0.08834807574748993,0.019715044647455215,-0.13019782304763794,-0.10609789937734604,0.0491277277469635,-0.009233721531927586,-0.11687560379505157,0.2310575246810913,0.14155466854572296,0.04074785113334656,0.1138339415192604,0.2743781507015228,0.08863145858049393,0.11428512632846832,-0.07398894429206848,-0.10673140734434128,0.09136621654033661,-0.0248409491032362,0.07357481867074966,-0.12263414263725281,-0.16432364284992218,0.0837891548871994,-0.15805692970752716,0.09714040905237198,-0.07047777622938156,0.24355681240558624,-0.15462900698184967,0.22349813580513,0.12300865352153778,-0.17375841736793518,-0.21794506907463074,-0.1303403675556183,0.04181291162967682,-0.022771695628762245,-0.31166014075279236,0.185318723320961,-0.043103065341711044,-0.07670394331216812,0.0918751060962677,-0.16171161830425262,0.0701511800289154,0.049523551017045975,-0.11824754625558853,0.4413995146751404,0.10934292525053024,-0.06708239763975143,-0.07381273061037064,-0.02497667260468006,-0.005850987508893013,-0.03085281327366829,0.04001469165086746,-0.11214051395654678,0.055563949048519135,0.30568215250968933,0.13183942437171936,-0.09467576444149017,0.23291917145252228,-0.14102599024772644,-0.0936015397310257,0.11736989766359329,0.2497970461845398,0.12847761809825897,0.3524978756904602,-0.17467406392097473,-0.02527237869799137,-0.21472197771072388,0.1332343965768814,0.13145646452903748,0.07600072771310806,-0.2680393159389496,-0.036181844770908356,-0.21546801924705505,0.15183798968791962,0.009960177354514599,-0.05071906000375748,-0.16009652614593506,0.10396724939346313,-0.1011914610862732,0.2675219476222992,-0.012923027388751507,-0.09186571091413498,-0.0030512281227856874,0.14492948353290558,-0.061918485909700394,0.30981120467185974,0.10580836236476898,-0.019207166507840157,-0.20506376028060913,-0.1946735382080078,-0.09892519563436508,0.14807815849781036,0.3781140446662903,-0.05798286199569702,0.0016686017625033855,0.1776672601699829,-0.2173757553100586,-0.14661557972431183,-0.042150650173425674,0.34989792108535767,-0.07621428370475769,0.0034843399189412594,-0.2174609750509262,-0.005015216302126646,0.028257619589567184,0.06844255328178406,-0.07350863516330719,0.16167522966861725,-0.10230924189090729,0.2649898827075958,-0.26384350657463074,-0.03868428245186806,-0.34745392203330994,-0.18286429345607758,0.0433136448264122,0.15275487303733826,-0.08287864178419113,0.21371892094612122,-0.24367263913154602,-0.030710237100720406,0.08405505865812302,0.006666364148259163,-0.1408306360244751,0.2127201408147812,-0.13985653221607208,0.028348607942461967,0.07272117584943771,0.004581512417644262,-0.006284448318183422,-0.000043074516725027934,0.001341489260084927,0.028361009433865547,-0.022276390343904495,0.09395511448383331,0.08813297003507614,0.013758926652371883,-0.00940458569675684,-0.11402992904186249,-0.07216884940862656,0.025439860299229622,-0.027797920629382133,-0.13462135195732117,-0.032799478620290756,-0.2701248228549957,-0.11728663742542267,-0.06281770020723343,-0.001726121990941465,-0.022689376026391983,0.012018312700092793,-0.11710315942764282,-0.0154851283878088,0.043744493275880814,-0.09534496068954468,0.11008191108703613,-0.029056226834654808,0.2756263315677643,0.05663612112402916,0.006729270331561565,0.028364166617393494,-0.22176694869995117,0.002854691119864583,0.2337811291217804,0.16882525384426117,-0.17870506644248962,-0.12468883395195007,-0.13904069364070892,0.08859089016914368,0.13589264452457428,-0.022200902923941612,-0.079879991710186,0.036144498735666275,0.05535237491130829,0.08582525700330734,0.2000410109758377,-0.15514913201332092,0.06004931032657623,-0.007582925725728273,0.0903753936290741,0.18069495260715485,-0.14618591964244843,-0.11407999694347382,0.036527007818222046,0.21205288171768188,-0.09587085247039795,0.0839463621377945,-0.016052741557359695,-0.004224855452775955,-0.008823210373520851,-0.18059732019901276,-0.11623923480510712,0.0898323506116867,-0.06663009524345398,-0.21669168770313263,0.2189151495695114,-0.22355546057224274,-0.10520388185977936,-0.19272775948047638,-0.24273255467414856,0.10612769424915314,-0.1973852664232254,-0.025254443287849426,0.048858392983675,0.17680908739566803,0.2994071841239929,-0.021626489236950874,0.015134049579501152,-0.1353231817483902,-0.1410759836435318,-0.009095549583435059,-0.0013852749252691865,-0.094903364777565,-0.08508484065532684,-0.14482709765434265,0.017898786813020706,-0.04214994236826897,-0.13171248137950897,0.12366519123315811,0.09086372703313828,-0.0018523205071687698,-0.14509449899196625,0.09765642881393433,-0.12753641605377197,0.0000992491259239614,-0.021034153178334236,-0.10410825908184052,-0.07851909846067429,-0.025190358981490135,-0.1524507999420166,-0.1602936089038849,-0.06147989258170128,0.2063622921705246,0.14446723461151123,0.0019628386944532394,-0.025020642206072807,-0.137075737118721,-0.1444944441318512,0.013140667229890823,-0.09377115964889526,0.10274995863437653,-0.0709325447678566,0.1248207688331604,0.009882161393761635,-0.20000147819519043,-0.13873757421970367,-0.11136224120855331,-0.17142878472805023,0.15552613139152527,-0.11968176811933517,-0.0340631939470768,-0.0912305936217308,0.08148761838674545,0.043748028576374054,-0.12331622838973999,0.030303247272968292,0.02220793068408966,-0.16630299389362335,-0.17499028146266937,0.1089535728096962,-0.17577578127384186,-0.07164665311574936,-0.05219502002000809,-0.03931758552789688,-0.11482200771570206,0.16085733473300934,-0.14744453132152557,0.07712629437446594,-0.04416671395301819,0.11141916364431381,0.11302610486745834,0.0308452807366848,0.1587887555360794,0.08089545369148254,-0.1816035658121109,0.05148756131529808,0.023526379838585854,-0.07329259812831879,0.07906915247440338,0.00575037207454443,0.11787190288305283,-0.1429835706949234,0.08667507767677307,0.11440858989953995,-0.22607789933681488,-0.02373557537794113,-0.044548191130161285,-0.0855645015835762,-0.048787619918584824,-0.1530478596687317,-0.04580492898821831,-0.3602467477321625,0.004153721500188112,0.14272688329219818,0.08316940814256668,0.029712112620472908,-0.18486127257347107,0.13340410590171814,0.011825107969343662,0.03529765456914902,0.09818548709154129,-0.05453465133905411,-0.02441537193953991,0.05035445839166641,0.07922520488500595,-0.0389404334127903,-0.07418284565210342,0.2038424015045166,0.11138666421175003,-0.17410607635974884,-0.07244475930929184,-0.028938041999936104,0.07993374019861221,-0.07609610259532928,-0.02384263277053833,-0.05263206735253334,0.009353702887892723,0.1552368551492691,0.15804825723171234,-0.12391835451126099,-0.07216846197843552,0.02209799736738205,0.012059859931468964,0.055772218853235245,0.10660344362258911,-0.06420301645994186,0.06061778590083122,-0.051887478679418564,0.05189451202750206,-0.07787604629993439,0.054909564554691315,0.10522151738405228,0.14699441194534302,0.0826660692691803,-0.2559259235858917,0.01640668511390686,0.4170181155204773,-0.18032507598400116,-0.043835654854774475,0.20678400993347168,0.04294363036751747,0.4326862692832947,0.018784521147608757,-0.29101279377937317,0.04117608815431595,-0.020313512533903122,0.0644490122795105,-0.013584796339273453,0.23915044963359833,0.35665103793144226,0.27077803015708923,-0.3621792793273926,0.022299831733107567,0.08656568825244904,0.12515360116958618,0.21950285136699677,0.21776504814624786,0.18420182168483734,-0.18957683444023132,-0.2707786560058594,0.15285958349704742,0.03609013557434082,0.1448782980442047,0.15311114490032196,-0.22387894988059998,-0.058847494423389435,-0.11354780197143555,0.1711799055337906,0.10601679980754852,-0.129316508769989,-0.21813614666461945,0.03862099349498749,-0.18463100492954254,-0.15463024377822876,-0.027658144012093544,-0.18463078141212463,0.2135205864906311,0.40307292342185974,0.07182259112596512,0.03253817930817604,0.26877298951148987,0.04527265578508377,-0.17478437721729279,-0.03234636411070824,-0.0024618024472147226,0.11512621492147446,-0.09088748693466187,0.24627776443958282,-0.025324592366814613,0.20908300578594208,0.012795630842447281,0.12786990404129028,-0.09347578883171082,0.09356753528118134,-0.223760724067688,-0.0470518097281456,0.04925215244293213,-0.24253533780574799,-0.09974447637796402,-0.02234404720366001,0.08690136671066284,-0.2472480833530426,-0.09458163380622864,-0.1775936335325241,0.16502243280410767,-0.03514454513788223,0.11632252484560013,-0.4172416925430298,0.16250605881214142,-0.10368708521127701,0.22174489498138428,-0.16133131086826324,0.14383459091186523,0.047763217240571976,0.06122015416622162,-0.11890555173158646,0.5951697826385498,-0.023054178804159164,0.21269799768924713,-0.07384748011827469,-0.0713294968008995,-0.032970309257507324,-0.24115315079689026,0.054993484169244766,-0.15321610867977142,0.6979418992996216,-0.153282031416893,-0.09357445687055588,0.27252405881881714,0.011314150877296925,-0.05213397368788719,0.04797280579805374,0.04359707981348038,0.16254238784313202,-0.16800828278064728,-0.06090060994029045,-0.16134582459926605,-0.06484424322843552,-0.0860014408826828,-0.1423972249031067,-0.20031878352165222,0.11077538132667542,0.1085997149348259,0.19431157410144806,-0.105565644800663,0.15423701703548431,0.2330455482006073,0.14124566316604614,-0.006496416870504618,0.09936943650245667,0.0003238515928387642,-0.13146010041236877,0.09283668547868729,-0.06681904941797256,-0.1304643154144287,-0.23343166708946228,0.1574854850769043,0.0654398575425148,0.16009573638439178,-0.05516072362661362,-0.03347322344779968,0.1128811165690422,-0.018143290653824806,-0.06260691583156586,0.027046583592891693,-0.0726432129740715,-0.10330341011285782,0.02116445265710354,0.1507231891155243,0.016163159161806107,-0.02266623266041279,0.11740679293870926,-0.20440000295639038,0.11745936423540115,-0.09963395446538925,0.022239914163947105,0.14818160235881805,-0.013552027754485607,0.26952576637268066,-0.03600340336561203,0.12863284349441528,-0.01853448711335659,0.042832065373659134,0.03695491701364517,-0.06675973534584045,-0.2604447305202484,0.0917065292596817,0.17177323997020721,0.11111114919185638,0.047363750636577606,0.08151431381702423,-0.06727611273527145,0.06322771310806274,-0.10010379552841187,-0.25384634733200073,-0.0576503649353981,0.08069150149822235,-0.12873047590255737,-0.021101050078868866,0.20724406838417053,-0.3220467269420624,-0.0538703128695488,0.0005991676589474082,0.10145869851112366,0.10854106396436691,0.0002735152083914727,-0.027294393628835678,-0.06252071261405945,-0.12497907876968384,0.01570591703057289,0.06497164070606232,-0.2744803726673126,-0.06184733659029007,0.05055450275540352,-0.03790858015418053,0.09790514409542084,-0.00219084438867867,-0.004568978678435087,0.03485407307744026,-0.04408326372504234,0.027331076562404633,-0.38100001215934753,-0.09649375826120377,0.0012093536788597703,-0.24470064043998718,0.06082973629236221,0.12738469243049622,-0.04668782278895378,0.014591720886528492,0.08090412616729736,0.03506653010845184,0.1115284264087677,-0.09302496910095215,-0.2985164225101471,-0.09405889362096786,-0.1216747909784317,0.044936403632164,-0.10890919715166092,0.21219855546951294,-0.023397350683808327,0.2096538245677948,0.07401571422815323,-0.29084616899490356,0.11082849651575089,0.026666749268770218,-0.28519758582115173,0.02077287621796131,0.1365988701581955,-0.3531157374382019,0.02199423871934414,0.07876665890216827,0.03454532101750374,-0.04316402226686478,-0.03126565366983414,-0.0916280448436737,0.11919307708740234,-0.20350231230258942,0.020439518615603447,0.029818274080753326,-0.07971899956464767,0.14908377826213837,-0.012615072540938854,0.00959733221679926,0.1419164538383484,-0.09297221153974533,-0.1617276966571808,0.029745716601610184,0.035307981073856354,0.0013944868696853518,-0.21450583636760712,-0.13636226952075958,-0.08996814489364624,-0.2774016857147217,0.10397842526435852,-0.07031305134296417,0.02803577482700348,-0.052077535539865494,-0.025854570791125298,0.03349068760871887,-0.08991751819849014,0.0963204950094223,0.10894118994474411,-0.1385938823223114,-0.02803032472729683,0.05394667014479637,-0.13085651397705078,0.08843029290437698,-0.10172514617443085,-0.11649765819311142,-0.010412940755486488,0.0906376764178276,0.09562535583972931,-0.03870372846722603,0.013950570486485958,-0.0014856670750305057,0.030346672981977463,0.024907173588871956,0.04637878015637398,-0.03597119078040123,0.23529985547065735,0.06908129900693893,-0.11675594002008438,-0.13128624856472015,-0.05206887051463127,0.08936738967895508,0.12914690375328064,-0.22723810374736786,0.058839354664087296,-0.029917282983660698,-0.2527583837509155,0.06118691340088844,0.10814289003610611,-0.10360827296972275,0.004823232069611549,0.10281705856323242,0.0282120443880558,0.10718156397342682,-0.19221995770931244,0.0447361059486866,-0.049652960151433945,0.03264457732439041,-0.048162639141082764,-0.16858938336372375,-0.084140844643116,0.1871601790189743,-0.1677185744047165,-0.20397327840328217,0.1928764134645462,-0.1030089482665062,-0.004410597030073404,-0.17723214626312256,-0.13369660079479218,0.10026934742927551,-0.1706174910068512,-0.162326380610466,-0.1447656899690628,0.3095559775829315,0.07530482858419418,-0.01441581454128027,-0.08071873337030411,0.07722732424736023,-0.2098866105079651,-0.09215416759252548,0.09714332967996597,-0.16805313527584076,-0.04790438339114189,-0.0369177907705307,-0.0514916330575943,-0.19353549182415009,-0.12392362207174301,0.19100038707256317,0.029451534152030945,-0.02673603966832161,-0.06008254364132881,0.0016394114354625344,0.18802937865257263,0.09544739872217178,-0.0030910400673747063,-0.15601828694343567,0.21391282975673676,0.012149628251791,